[[1.4485348469311679, -0.07305693390432827, -1.1668810414419368, -0.22249625051509372, 1.6990793978831606, -0.25910592622034967, 0.152086462312887, -1.3238015297533636, 1.5169025615305443, 0.07948736431956442, -0.06487197152749732, 0.2939958835658825, 0.35110587316787784, 0.18679607378264965, -0.7273172763454079, -0.45851818495105223, 0.5917378505765857, 0.5576098957006185, -0.150105109389184, 1.0897449261917584, 0.9653301009855213, 0.2752191970861325, 1.7466020662320305, -0.4715574394415985, 0.22548661059879127, 0.5615357489233264, 1.4284452007310589, -0.7344275791566857, 1.807525321750054, -0.5418167523832589, -0.32076484889552, 0.2742588605131732, 1.0239765345523564, -0.6560501790080978, -1.2120629331085704, 1.4714811397534313, -0.7683771738141104, -0.4288976749180413, 0.8572408254720877, -0.3180318713921225, -0.7380468939531849, -1.3618938074638112, 0.8407259978974293, 1.681315877373884, -0.6463610122677788, 0.9902327652965932, 0.09110203857363605, -0.00878366041978469, -0.36327121682903657, -2.229403352053852, 0.09577087196865976, -0.5841436328861731, -0.6746712480713628, -0.7293891164678006, 0.5057002355471911, 0.35178466916463896, 1.0577408817257492, -2.302087249889083, -0.29718182813312155, -0.9910913090087734, 0.17515627656653457, -1.809064763511205, 1.8607183658982602, 1.5285233032890826, -1.2396218829147896, -0.08019829047787745, 0.17170949644772468, -0.11339238276108266, 1.1683623030379533, -0.8562977557956575, -0.6693068707256639, 0.9360609010571935, -0.022736047561118723, -2.413503543431274, 0.5066557614590002, -0.26531534914500576, -0.02266743020719932, -0.3216825734068187, 0.8817582621117996, 0.43576587687586504, -1.8864663335995757, 0.769290604107409, -1.3512321612788454, -1.797173010477034, -0.8213212666014111, 2.3445415013764555, 0.3610783408608386, 1.3412342983764385, -2.3707459448512536, 0.8357305946053415, -0.4706508026268958, -0.29567437933881946, -0.0768584981360483, 1.8782962355269939, 0.7855203152072142, 0.8178425745717088, -1.2569626661578461, 0.18097609083039798, -0.45230478450192413, -0.6383423788292524, -1.3342095547524806, -0.7528064879314122, -0.52331275940079, 0.26019569386933156, -1.7459397959716225, 1.2471123993085282, -0.248518958890053, 1.0984936226444701, 0.3257362914988067, -2.0455805807762024, -1.2087261657338126, -1.1172443615815473, -0.16863892633696437, -1.3907176054959047, -0.3644434300846555, -0.09574202328705567, -0.4781401012601167, 1.5341263264611675, -1.2152586724703793, 0.2489862583607915, -0.35388536998011827, 0.4568417192747857, 0.886360480133607, 1.354194222379481, 0.6534601852026614, -1.0632328434376954, 0.32696335794961445, -0.732811714386799, -0.30864050390060027, -0.8971769481691321, -0.4250792009725791, -1.3129420810894754, 0.8707094234184363, -0.6129518036687427, -0.9981552060528628, 1.1407723315654634, -0.6249344646856954, 0.279777897807516, -0.8882906413053974, 0.637223188642476, -0.6578565024454239, 0.612380935546553, -1.7521385522511603, -0.5491599238555754, 1.002114541002015, -0.30668532621434713, -1.1088173401091166, 1.5860837963349925, -1.8085244040040442, 0.057830109709293046, -0.1482730332551575, 0.23252290865380953, 0.7069140170581288, 0.12459730695201499, 0.0630607416841716, 0.25641808036405433, -0.12291247000396756, -1.5377301924357751, 0.02412405538277401, 0.47364571410518835, -1.0425710172207336, -0.8948758573467916, 1.5417244263447671, -1.3535194271117508, -0.635368149871725, -0.11241912766594432, -0.07541899269015181, -0.2323666654997559, 1.5669101770418643, -1.056397089069026, 0.054248419854095904, 0.5325998214918732, 1.0349141379139126, -2.484017569937673, -1.1718568166482122, -1.177562612113648, -0.7086191776317107, 1.2139223290728227, 0.023702386605645664, -0.787739296532723, 0.3603711196589882, -0.2447679046332512, 0.03656788646139202, 0.9043097181662697, 0.1490116231928231, -0.3594456790890381, -0.3668564760609445, -0.7524141106729398, -0.8593005599793305, 0.22075126992732938, -0.021205320890569025, -0.9384286276379199, -0.01929182730850355, -1.2540789803132135, -0.8356070981493332, -0.2651765220207848, -1.459080365635057, 0.9881211753230523, -1.2693094335756927, 0.3704815622141914, -1.0650162577014493, 0.13026151363241995, -1.3823857740613559, 0.006994123064469617, 0.21615412725671876, -0.07484519694616455, -0.2141889519670948, -0.8863798565750858, -0.3825701394807702, -1.3671085128832787, -1.6937899615666463, -1.1171047422718834, -0.32004773879532766, 0.4595751689913537, -0.6868900052312832, -1.5517982147701221, 0.365888100209277, -0.41276054475379614, 0.5417114401555154, -0.7702005425613784, 0.05833134704538964, 0.44653453880656796, -0.21940532062232057, 0.14383780683641326, -0.3729855479235227, 0.36331734767227764, 0.38031731573190186, -0.9412708030247874, -0.11352279758847411, -0.8444126667979345, 0.26316973212553485, 0.22916357295686204, -0.4291762085433791, 1.0463391666489006, 1.4533991287825552, 0.4588423901811464, 0.8887166859288756, 1.698215143015826, -0.10615696773187155, -0.8225182082488841, -0.35455586940244327, 0.16288287247845606, 0.9546999215523402, -0.4112903470691333, -0.5025612425388359, -0.7051786507042644, 0.7283829270324914, -0.59801901645158, -0.8304513398436666, -0.1572558273351801, -0.4253140021845249, -0.06411854226868348, -0.8858694919305172, -1.9332706744573034, 0.3479591236510172, -0.5663280140492133, -1.2981536756861947, 0.3275731791792819, -0.03234606412206558, -0.6908085139489785, -0.772733712506778, -0.15563532881636993, -0.38841669177128413, 2.461930488406559, 0.941998038471525, 0.3953132765192472, -1.6210563238247868, -0.46140680368448195, -0.4607434988349689, -0.1548636445977634, -0.190638629835433, 0.1859667878678646, -0.6035434303378029, 1.3727556161062104, 2.3304877739803063, -0.9085910712714249, -0.11433266906388666, 0.3109341443091901, 0.17892745150683714, -1.3223879350806893, 0.48950858981149603, -1.323080051249597, 1.9933337326960694, -2.066158408123763, 3.0328995630237006, -0.7876399729382164, -1.420473635926021, 0.030576394074454217, -0.05642454863676998, 1.7901144486253338, 1.84649313837968, -0.082820763922826, -0.4332157921226397, 0.38081875749233396, 1.1434031714447372, 0.04011868842569746, 1.0167849419470318, 0.20696908790421478, 0.24585373330595123, 0.39915407299220784, 0.3427631332380741, 0.7052285887792137, 0.30043673661454495, 0.4175474781886957, 0.7084792347907712, -0.1202494973763559, -0.9721431281657545, -0.8931791789930236, -1.6844212915610497, 0.45630824004417414, -0.657367680312615, 1.001320406335465, 0.31487691418983377, -0.7953370474887007, -0.29334805831612876, 1.2338146488772608, 0.06862411954378911, -0.7404497405286992, -0.557673663394595, 1.0066752392658957, -0.02246403567371949, 1.8703842580166807, 0.724178919108204, -0.004300270475649883, 0.2179113275887147, -0.2401795873971514, -1.8874930433758286, -0.5705502988213935, 0.6740164843483283, 0.6470359542574377, 1.2163878107082609, 0.7006715630207837, -0.11898502488680315, 1.378373850463697, 0.5308230597547476, -0.12067634579444304, 0.6201454608388146, 1.6862809865551744, 0.7936235201144418, 0.16775822566337303, 0.6354017982218189, -0.6000529579716641, -1.0662173036099925, -0.1966406996533706, -0.8238370074518954, -0.9676256667627882, -1.0445685326737806, 0.13310519657471612, -1.3218720286116163, 1.2511387241228713, 2.382133878887753, -0.4572887120833605, -0.22025371500595656, -0.0072280963741143765, -0.8132477130264254, -0.56082577035839, -0.5136610207014961, 0.6169366368814739, -0.6801053224849223, -0.7047261123649609, 1.2943095236201474, 1.2367705582910438, 0.8092401181636687, -0.058946910483592546, -0.7228392007798925, -0.030767676614258502, 0.5836998058081857, 0.46473744295075975, -2.4156349203148317, -0.4070018675244448, -2.730582373762797, -1.2135613341792177, -1.8520156041456954, -1.0405338564712228, -1.187594219876977, -0.0695638076864475, -0.18424077785780518, 0.2875430277716306, -0.8851881526713474, 1.6302179459429424, 0.8211941247603172, 0.5172558927712233, -0.9264163385464037, -0.5867314307943119, 2.0976714668817755, 0.7600925485102346, 0.46231424202467036, 0.33203772871847675, -1.751586746263875, 0.17497903324640815, -1.085953758093912, -0.6211176159503599, -1.8138170606453607, 0.0036525338617435766, -0.4675534471284961, -0.5336737641635637, 0.7724998014176695, -0.40748045489364887, -0.3977592666725723, -0.3385665672153512, -2.3162089943369475, -1.2651209776370083, -0.9082203511866312, 1.253601023725907, -0.0691568465298522, -0.4547204330861978, -0.003239782265160291, 0.9572135647671454, -0.22600441418274278, -1.0980384686289448, -2.327093973668151, -1.4307415140936672, -2.617712007266658, -1.705468162692189, -1.023002734495625, 0.35238155256762477, 1.1000935932880305, -2.902311745439665, 1.1391499027329894, -0.12629677178761253, -0.6403344542053401, -0.9518298128361931, 1.6034810625888316, 1.0671570133406247, -0.44805543002884296, 0.3759436597184315, -0.7378400136184098, -0.7902228701893508, 0.10893257302226636, 1.1190047465831408, 1.0466939422194557, 0.9850049783569645, 3.403829829827959, 1.3373622440714248, 1.6593466769335385, 0.10437877588624705, 1.2634684769685574, -1.9906926288386417, -0.6296512485000314, -0.5804066430006081, -2.6466083779110146, -1.8071438001997706, -0.7567427778463582, -2.13813998231388, -0.016438893419904916, 3.296927495189841, 0.10327010823584191, -0.8293232897559477, 0.22448721386227227, 0.11415346671580855, -0.5792147459489912, -0.37498882879019046, 0.21690422712232263, 0.08886945076470947, 0.2601432590186761, -1.137345356221408, -0.8108223679950494, 1.646800453240316, 0.7624305117445308, 0.34090610368124347, 1.6477717431554302, 1.3156711690177134, -0.18873330916755468, 1.8610611368899739, -0.4838443919591008, -1.4514811535641707, -1.0333255961957664, -2.6557147525125115, -0.1673906233570223, 0.35581460980614704, -0.08591560683665388, 0.3897230436979637, -0.29376831069600834, 0.4011572540354929, 1.0856071625352801, 1.3861463849962483, 0.16522686542737125, 0.7518544902241906, -0.7104843121636619, -0.2828685959978789, -0.27698699182423714, 0.45163421740997406, -1.908210909596643, -0.016900254280489406, 2.4171381218200487, 2.0504396472273196, 1.6693965819933345, 0.7499518332339196, 3.152720494023688, 0.40871080680089417, -1.360705636404432, 0.39856730429848225, -3.009933175665393, -0.5320819550750508, -2.478040518047566, -1.775240356151532, -0.5463583670739276, 0.16866570060974445, -1.14157050956383, 0.19603742274699437, -0.3922501654072411, 0.8134910180637067, -0.18453289003415166, 0.04185190961322149, 0.6297397418647501, 2.1342319758678023, -1.0788594612933544, 2.2092622411360794, 1.149966106913932, 1.2411031196132, 0.3208100726915739, 0.702722117334329, 0.9961772598268507, 2.011316898287059, 2.223960990050664, 3.1673219760269298, 2.509381530435792, -1.9403858079130418, -0.4890047876172566, -1.4814237970644832, -2.3422639310064652, -1.5587918278089403, -0.9796712637808591, 0.3274053989542811, -0.04844143994758109, -0.2815219408390322, -0.4497969768337801, 2.5899297065709352, 1.0954335535417425, 0.08479005589256065, -0.9809832143443616, -0.6107733716617545, 0.33636314909228365, 0.5422345817826347, 0.14859711140763643, -0.8659386091717851, -2.230169389409226, -0.4331907809459847, -0.44839535896249477, -0.8860424650571707, 0.36520562638975634, 2.666212854102079, 3.050745855819673, 3.598336909130529, -0.13232965029422125, -3.7851149029114968, -1.248893137434369, -0.8677203346061164, -1.3424978762290005, -1.133053225426474, 1.0300083442961148, -0.11641683357228198, 0.6964519058913121, -0.7020547245231882, 0.025637378910001802, 0.2923183803848065, 1.4820320497264161, 1.9291871609569873, 0.789320610901354, -0.8066115983515716, -2.6754635467107226, 2.158919653753156, -0.9604669568390327, -0.3390665355538244, -0.5864978643189226, -0.14714799817753457, 0.8689969585607614, 1.929713702992913, 1.3763844027829022, 2.275643847807934, 1.9006216426250975, 1.8970602222212904, -1.6760248985133361, -4.325625505733061, -1.4526692646246846, -0.1550101803598938, -1.0574525881121353, -0.10531866474200846, -1.6066473804059296, -2.031072485887261, 0.6114327598845314, 0.9914449588088866, 0.3193021206195065, 1.025376840484876, 0.07713934668838544, -0.38304826726798685, 0.6017601948268634, 0.681353588787728, 1.1375650488561853, 1.6397331807993927, -0.10019838281317474, 0.898968291869522, -1.0411673836330644, 0.46529959024309797, -0.18577529734151807, -0.10463081328747076, 0.41301560677410576, 1.1171440997594313, 0.09998909563502568, 0.8927778762694378, -1.570383749643488, -0.11102630876103199, -0.8402383526613206, -2.6861816891708576, 0.3066264163934884, -1.0463379711049028, -1.1700823757973693, 0.23423249680815086, -0.908353005997712, 0.3700845211295257, 1.4980662509552976, 0.8439422951606984, 0.7591184655027826, -0.9453339689395569, -1.9444331776474482, 1.6952291936398545, 0.10727898770562247, -1.6896453192499334, -0.502497765309017, -1.5398495256272178, -0.5286527993549751, -0.818521798948657, 1.3309729679513786, 0.9991220624436422, 0.9056869569487362, 1.436027655444745, 0.30488894068180916, -0.3026979138801802, 0.08322298920353421, -0.42764179580550327, -1.4294247594541392, -2.1122730986916696, -1.1744551311491485, -1.1891362519023885, 0.20595222695116328, 1.4367834660379528, 0.6185161662321534, -0.1300590189400999, 0.6416158456149039, -0.003420105790575054, 0.08070609305876826, -1.8004981776403324, -0.17188343399236217, -1.1726858566024185, 1.900601277723966, -0.10872781524031869, 0.2795479244414573, 0.3731675284684251, 0.3852365492297374, -1.3941281158406031, 0.39266725448001333, -0.17392405790905174, -0.34674488216617855, 2.0996423173451366, -0.5891939782507963, 1.0917315582508758, 0.4201602327899416, -0.1096636710436043, -0.571206049457526, -0.9493272515222438, -0.35841413948849293, -0.6346440990397105, -0.004490019152119558, -0.193209145936404, 1.8502393273633897, -2.401584318889417, -1.7015928038840058, -0.7043292424055884, 1.416263309880997, -0.9197099577886406, -0.6690737986103527, 0.1135813903247356, -1.2250669626733488, -1.388746823184693, 0.37422278689563687, -0.37056812560065133, -1.4408174129320213, -2.234363679798654, -1.3275051549964771, -1.4275917849372755, 0.21962661858861146, -0.7549193860045131, -0.6430227928652797, -0.07713976643679743, 1.1232346002292783, 1.087818175260748, -0.4831364400295582, -0.8050124970853281, -1.5310133589827941, -3.157021398541057, -0.2931940325368958, -1.2583680008457487, -1.6710823718890455, 0.8714117046210047, -0.5481223456926432, -1.4058484721139486, -1.3259347645183857, 0.5723542983864273, 0.0032579349199210236, -0.3246003995833898, 1.0959411278831492, 0.6402716852005778, 0.35077855889550313, 1.5091679119532233, 0.9074342964436783, -0.9925663197535637, -0.6537720384543553, -1.172155013312026, -0.23288397973752964, 0.038216729024903584, -0.6010605315458869, 0.48073020141305683, -0.7117577246752569, 0.13826994412293347, -1.1501568147339987, -1.1461761189947872, -1.0797975865006384, -1.7972663973951186, -1.9791782111749405, -1.2750913858150228, -0.2676453015286395, -1.158020445596529, -0.708739359250865, -0.33004319906570284, -0.5476249206719029, -1.2753022316777944, -0.9857768705848764, -0.12695611424509687, -1.6636818107528273, -0.0560888644824912, 1.2508858311668625, 0.47575177856241063, 1.5467311524093976, -0.95100317631226, -1.4008099428971825, 1.9752733476660906, 2.0988905567127283, -0.2605922522952928, 1.3982653202174908, 2.300704262523446, -1.3119460302017887, -0.32557046654610516, 1.3800985739579734, -0.6919643089463233, 0.3811179459576475, -0.18905514946077062, 0.06532120362353977, 1.6177591022435882, -0.7665634790111016, -1.5839963761961076, -0.18871158287627207, -0.2552432704308534, 1.883396539721756, -0.3600665119134218, 0.01491229794814655, 0.06215226078209176, -2.0431810895554223, 0.8509496660706884, -0.19902127872542094, 0.8001496323267522, -0.045296811303800054, 0.5078133875034544, -0.6734461152339802, 0.9692790750446468, -1.4546739237541984, -1.4661863929244907, -0.19981760809065313, -0.39970753775314777, -0.16160590244732034, -0.7299037104945462, 0.0015141405420587262, -0.08710845644137008, 0.06332850113982393, 0.7061040175188118, -2.0152458670107567, -0.01834454943567651, -0.040120714023573215, 0.2892735624384618, 1.2674281726188714, 1.4475977561056075, -0.08398010608246205, 0.5004261275410748, -0.753081973469044, -0.0842663295387501], [0.9783323365550086, -1.5157988678133907, 0.22369612091240995, -1.9130108654000866, 0.7565737718665235, -0.4100123848078017, 0.7794609572615224, 0.11862115374121039, -0.5687281885920984, -0.04665590948570113, -0.31927509895390677, -0.09802386973518375, -0.26431439502191595, 0.4720712436710039, 1.014278938149166, 1.3899817729968749, -1.011169594086628, 1.9070038168500583, -0.9341601413000314, -0.7375126736069152, 0.7232935554581096, 1.879601520350416, -0.8327337179057259, 0.9792755326162992, 0.20336654803313126, -0.9326833197286248, -1.5218660486337283, -1.2126314007568053, -1.6913973369730113, 2.3457969223933937, 1.3892154969888517, -0.7765688815380617, -0.17107989718865468, -0.9188949859648851, -0.1285950448891124, 0.20868862447436784, -0.9381190413631694, 0.4201981931356785, -0.45625961757428407, 0.4724977333687023, -0.36893189358510875, 0.5208250569629039, -0.5224377262147385, -0.647659696714316, 0.17270937858476745, -1.5407169651258517, 2.3960883208579102, -1.4597778782847928, 0.4973213600295422, -1.9592161473812404, 0.932170689705034, -1.549172666063197, 0.6376398380142887, 0.09654220140733523, -0.9356119731965035, -0.695489848440639, 1.3655734261532397, -1.0442822806887844, -1.0589742837963794, 1.9508550845620443, -0.7117577319540578, -1.6784483659676308, 0.13790126426335853, -1.0266565043022233, 0.7525835539933843, -0.8014945510832783, 0.6295222625983699, 0.06069022621255182, -2.1732740132541983, -0.3126965802463665, 1.4585525344320827, -0.48983599991620635, 1.167577902516949, 1.3513580561057752, -1.445772728453135, -0.46133708661257095, -0.0013112192832666733, 0.5171902991262487, 0.6600280509005575, -0.5719046496849219, -0.911914861387278, 0.9169544418954331, 0.35038225525798833, -0.4374990435335314, -0.13505005196573594, 0.8559954635300743, 0.8982101089124952, -1.0636510890412214, -0.4601757746700525, 1.5000148854551696, 0.8262869025294635, 0.039019281121792364, 0.2140652616266679, 0.6877847561359264, 0.28034309487626646, -0.3114101642173315, -1.0589013735075075, 0.48156193790509905, 0.12976729314930827, -0.23341370198319378, 0.12525865458049, 0.42951183450710473, -0.2012513576824369, -0.10463635149343731, -0.7147648696058744, 2.2592092196874702, -0.6194564963038652, 1.9163484284558803, -0.6463744976486366, -0.9308689622069377, -1.0069397196188346, 2.4419360148488303, 0.35052238011881026, -0.5329159187871224, 0.22475936134414518, 1.1213261105752714, -1.9139882408340656, -0.6047553800075256, -1.0527369471719488, -1.359501162573326, 0.0683035906272337, 0.6071355857076388, -0.27989919564253113, -1.4160879901582444, 0.03994792372489462, 0.5151522181336525, 1.2982386455782975, 1.3858355499107147, 0.6215446570136657, -1.7260160258846657, -1.323592693504083, -0.37411228222772347, 0.5848251549513823, -1.0016484391068687, -0.21562914355270096, 0.05955256831158393, -0.16876409774012882, -0.6713290234916914, 0.05838734969865152, -1.0448627870419365, 1.1070544955750834, 2.321275379834958, 0.517145742705496, -0.966155716688033, 1.6796226284388258, 0.17747449651100783, 0.20967317290791956, 1.330371823467459, -2.2629319780230395, 0.9170034874505174, 0.1698144944458528, -0.8341961232133858, 0.17261729189759245, 0.1932092454443627, 0.17329295465199018, 0.45772835534050876, 0.3736229901657267, -1.9313596851485928, -2.049865752813229, -0.4088761033628582, -1.0982521233246807, -1.9181779302045736, -1.8367323312637127, 0.5390885825864596, -0.7429059914788188, -0.7245205609906137, 1.350973263249071, -0.15562574557812472, -0.6614602006844016, 1.3205552816314576, 0.47923329076124155, -0.5896061179337108, 0.4317136439617886, 2.0827480796731703, 2.7275576748211905, 0.6008532451500067, -0.11920218641022864, -0.4843907911394991, 0.46572197215161276, 1.0485916870464065, -1.819073567299962, 0.3775003743427846, 0.014314488937914455, 1.196806225375937, 0.09038673028089268, 0.5842016524710785, 0.8640506637725277, -2.937154974077489, -2.3394361173654405, -0.8881974948293766, -1.6638474185061065, -0.6946747028394613, -0.5224506149152581, -2.1332685520263515, 0.6886821623744912, 2.384930914044002, -0.8940352209935343, -0.00740843560571039, -0.2923453277156417, 0.6453448756949933, 0.24794869893711424, 0.3234824894512062, 0.6166248037131483, 1.4381802691304402, 0.01426297267059051, -2.0315917086397954, -1.3342308371482419, -0.6444290921131317, -0.5953446464443543, 0.0785519418632779, 0.3654888682236848, 2.250442591421221, -0.6528887338898578, -0.380970647106589, -0.8371272163806983, -2.1420918765266204, -3.7726972299437604, -4.800877481195058, -4.092979180245338, 0.28925042331781037, -0.7016839868670952, -0.5938259503678552, 0.01765412370293045, 0.7389026120890768, -0.603949400187202, 2.0239350715040105, -0.155944408494886, 0.23624896845957455, -0.9115952199464479, 2.1815573101625345, 0.22338440062780857, -0.17550264412425315, -0.299687036933969, 1.3695272454942038, 0.1504322194651334, -2.5280133103012354, -1.7491466179334432, 1.8019083885491154, 0.42613101811674725, 0.08462259142195917, 0.1822667677086172, -0.1372892407842182, -0.5621185789944462, -2.110079286413103, -3.9936801841022587, -2.6711957905560095, -2.940179514213768, -0.711014940854656, 0.3340784922113946, -1.54691627749555, -0.7623481489729187, 2.059819303829375, 1.3516160123767849, -0.2913219013553205, -1.1358173456842307, -0.3081784254891843, 1.2556701576284703, -0.4882913716115615, 0.9743808024553448, -0.7588714076615878, -0.8788841566705415, -2.2120992642163033, -2.2621305128419276, -1.1399551819505722, 0.2982376490509655, -0.2510736494736867, 2.8428987051777534, 3.3070973253960876, 2.9942175816659673, 1.0442315253694026, -1.2575713519054268, -2.9831304758520747, -4.829066781034523, -5.375691294074374, -0.3178530422005684, -1.7921664037631244, -2.0274351152002, -0.7149605584082004, 0.26604810075744284, 1.0552647428275328, 0.3430266768584156, 1.133525531682054, -0.8921579238764311, 0.06822270017001004, -2.0849936651868606, -0.5639838473374381, -3.0283840949810426, -1.0539714815562047, -3.169697651755133, -1.1326731650626918, -0.16409749342669855, -0.5767424107783578, -0.1857722359938572, 1.7435039100683736, 3.9232197203084476, 3.852201466103491, -0.6158740949109418, -0.9759438187038196, -3.666429085368721, -2.440053806688441, -2.130355098254469, -0.8174320767122584, -0.8759180373044003, -0.4318940237989492, -0.5154637914024435, -0.8182963038280686, -2.351192267863491, 0.7640511566076473, -0.3820672918300336, 0.16317823617377497, 0.891264536691787, 0.4990985084744157, 0.3280522853476483, 0.17238815070527466, -2.1113188563172876, -1.1567882832185987, -0.08831816606504288, 0.2603854669955849, 0.4088998042753563, -0.18485510477030398, 2.14343370813929, -0.23038789823734776, 2.2223050230942887, 0.12465510342504846, -1.9881234995938204, -2.9571900027728746, -2.123041463136695, -0.8604983138206342, 0.5025015195243511, -0.5580854804132671, -0.8563027276756844, -1.669903682693403, -1.2076672292532473, -0.43013727352789305, -1.477919309584989, -0.42599013926035667, -0.5822611109760941, -1.7121857591188667, 1.0648795243598992, 0.9347068074357859, 0.03777498522316409, -1.303636185096624, -1.5410611713412914, -1.4644735662064146, 0.35495554351423697, 0.41237224393216076, 0.7348051720986003, 0.9332706079658896, 1.1697622864468193, 1.555319740972372, 1.4421091562420159, -0.9224113789547528, -2.1094867886105613, -2.0018896247014535, -0.6205712337578793, -0.5361013256823787, -0.9765295286200252, 0.7699853137462839, -2.664817329880601, -0.548810941654883, -0.30768622536101425, 1.3832127946109984, -0.24863763891536905, -1.2056002757009436, -1.4999897032243632, -1.1251763859097856, 0.42558541800938743, 0.4774959253762901, -0.05337264374982409, -0.3853055720095043, 0.6145003843444184, -0.7684558269256896, 0.27993902904898355, -0.3032460323037947, 0.7921914348715451, 0.8437090577040401, -0.9238974724435954, 1.9705653415227613, 0.10517019874447663, -0.5820139439128337, 0.34119526765003816, 1.112960961427048, 0.3989078070923501, 0.318530341928719, 0.9313427505640078, -0.9298903539088326, -2.4737074646314956, -1.2788217702338305, -1.3924555029287924, -0.9161728083904099, 1.427678906965486, -0.5450046930300042, -0.6061523363671634, 0.46382688674677824, -0.6509631761803215, -1.1735891825313356, -0.3994337894080685, -0.1585104318836618, -0.07730121251512923, -1.1787011399467577, -0.5113955063105132, -0.15150502065506855, -1.0362324924213697, -0.9870198682177982, -1.2745453924020296, -1.0013574695333947, 0.830631270951246, -1.5646242069996696, 0.04275437978169366, -0.6443540763062366, -1.9993426815791633, -0.5277291250417698, -0.28859772367680575, 0.030369848180450455, 0.4349258709355513, -1.2441258891829492, -2.432957835046529, -0.47358354308080514, -1.0427748565681705, -0.09400527781626364, -0.44439899625885076, -0.9054242202564912, -0.5321291403669811, -0.14953185369653352, 1.767992954213898, 0.49587552382543965, 1.7578646227390153, 1.7708555647016027, 1.9710421570686065, 1.7266247436692332, 0.306004098695016, 1.159022676832645, 0.0335942639084006, 1.0325353652936229, -0.9342019000499859, -1.7883302347485626, -0.5954333557625551, 0.058206636830284444, 0.22034393851938244, -0.8548670244086162, -1.2881352425177703, 0.29717554782660816, 1.5783302585869314, -0.4312773180460669, -0.22975261255391477, -1.2641651480450427, -1.323682520003041, -0.05127340476638085, 0.32904003250832964, 0.1995488009773655, 0.3512960616745038, -0.5152390226570498, 1.2558678181227114, 0.7436960565252387, 0.025180068203496428, -0.6593630423489986, 1.6689009758486777, -0.4580025936096718, 1.15568575935157, 0.9002677838860103, -0.4261687837478235, -0.19202153647914907, 0.9019940666357777, 0.11990634694953571, -0.1512275777769269, -0.9182297568854234, 0.2831894204754238, 2.172730278706685, 0.41821096420402204, 1.5572172605869716, 0.11972323245280467, 0.4099871799350932, -1.2584152768966965, -0.7782201366878453, 0.06312401964723645, 0.8171497864161187, -0.5688746931095443, -1.1845689336450256, 0.45471616093129835, 1.0949705335909352, 0.1797636114307281, -0.17256921213947707, -0.9320418200356644, -1.7902161228172773, 0.9368361908969033, 0.13022816041494778, 2.404018036935187, -0.8952236845335703, -1.2256001638678833, -0.018218029225607977, 0.8046285221141323, -0.3359376581437706, 1.203030129655403, -0.7466106632878807, -0.567058187355795, 1.471498859769665, 0.5152311993243587, 1.8319162101500739, 2.704485600988492, 0.14929966624997645, -0.26451438667835137, -1.7258147094484924, 0.45057380534971286, -0.12761271861322182, -0.895818788805516, -0.9998202416170687, -0.20927623942120846, -0.3881502864911796, 0.16115632626140908, -0.5313274795849483, -0.09695927175586093, -0.6205464808405393, -0.6892991282501216, 0.9658362760396314, -0.07034931741453025, 1.2242300516235454, 0.47005273026097577, -0.2000207858779901, -0.6075418138184348, -1.280697878915491, 0.19062996385671094, -0.5767329226583308, -0.6232217955178504, -0.4587779505862631, -0.33910320593365273, 1.9538832138676474, -0.3038683223429163, 0.10903220113412639, -0.968015023732228, -0.25353493997152426, -0.5133380129524622, 0.8755032107735478, 0.19137450192152664, 2.6453727642775795, -1.6021782308020738, -1.479414315139235, 1.4846040791544357, -1.710839463798868, 1.053821313182249, -0.7579508489485939, -1.054062023491599, -0.862333040615012, -0.41990346236130816, -0.20970133797287974, -0.4213419472256414, 0.9306369657678785, -2.5688917864377703, 1.3584419075812384, 0.8794468515567747, 0.8961689394226406, 0.7282131473167485, -0.2598148654481117, -0.2193054608115146, -0.2253487050836778, -0.9247735184628165, 0.9691562006182525, 0.9344420852485362, 0.9086617587422683, -0.3716852270922994, 2.4474682016260783, -1.3968089400581591, 0.5810822702653948, -0.8647502761876049, 0.4367534036523729, 0.1320213495172659, 0.17725806066259603, -0.7660423931609655, -0.43406873220054865, 0.7438989299948265, -0.9707761088386293, 0.6448737853715151, 0.4674758697201886, 1.4460628585081865, 0.3039072806138452, 0.7574779201252425, -0.3672973884347433, 0.06003414920948695, 0.290369996919585, 1.1552193799788844, 0.03770570006050531, -1.0086217524488827, -0.8745195041882398, 0.2472044508046828, -0.17126869684997, 0.23897034829988473, 1.029366079059241, -0.07742744623099243, -0.23261123818909038, -1.6036906923658423, -0.5421388547222252, -0.32329723939662414, -0.19951310521792429, -0.6485796221919502, -1.9475056493816387, -0.7146756069783423, -0.4208740976412549, -1.6412797638101713, 0.5262021872124646, -0.5521107090634308, -1.7149527902556727, 0.22034651018404458, -0.5768567347022736, -0.8386217499869809, -1.3741998201200232, 0.06930516076375864, 2.5166753987649413, 0.926439204386225, 1.5648666470075971, -0.37007757909827327, -1.473313118472402, -1.7021236523929277, -0.2880095753674955, -0.737613771955935, -0.31217873930268264, -1.2951271696871947, -2.0648365161859132, 0.7424632782915886, 1.2289221046102563, -0.281405659612287, -0.09025062301777068, 1.3654441000585986, -0.05693789477147723, 0.5390003825313451, 1.1368575364470253, 0.332109222260845, 0.13327667518061484, -0.13057150775839874, -1.071869864671933, 0.765549039502886, -1.528366334781038, 0.25186959051979435, 1.2606855649886743, -1.9048812871931782, -1.8811930915719475, 2.032207643643324, -1.43217794904898, 2.2970441271198045, -0.5157276250028352, 0.4338063397546435, -0.9347300386390407, -0.11365196836699311, 1.7552139912521234, 0.5797673125031066, 0.024171514647626794, -0.5438357223874052, -0.607665213743401, 0.523118662937945, -0.02782118164892065, 1.1833973010501966, -0.38852958387677644, -0.4696537510369875, -0.4966484276400305, -0.9826856180120386, 0.5831541583791597, -0.24547820386113384, 2.7068501839448365, -0.8616135877370021, -0.3052985009536346, -0.6341274807816785, -2.0706598436369497, -1.2250690530962745, 0.42566782945585735, 0.45749955375996576, -0.30185345987845047, 0.5797615918706136, -0.7652782333185479, -0.13327310830432992, -0.7061555287638874, 0.3720374026929313, -1.8055334234580125, 1.0318433593665515, -0.014093852468130382, 0.43599611000639116, -0.6836651366816782, -0.16631768420276827, -0.3556020753740784, -0.043739441100697836, -0.801154505806502, 1.0822493659971502, 1.2409733697400236, -0.198101718817288, 1.0157317580796503, -0.5454809325175964, 0.5371270963660587, -0.890323952723913, -1.0221851260610575, 0.5794804111219594, 0.4892976754504763, 0.058215091515015284, -1.167308229877755, -0.3910025409254274, 0.11967845834181877, -0.9394148788852115, -1.022521128824439, 0.1516129740374493, -1.0304646961233355, -0.32556523165034246, -0.7272830235772929, 1.6412277009920049, 0.5707715604823677, -0.47113834624922857, 0.7589530815683642, -1.3173394900887276, 0.8068537903415759, 0.605007066936123, 1.108915486773425, 0.9804458294219061, -0.2917295867859316, 2.553207194552696, 0.2556308605768851, 0.25464045861082, 1.4594020002759134, 1.544044989666244, -1.7187304628700877, -0.48005754155291575, -3.331184711862897, -0.21534880353963604, -2.398342548770689, -1.4566464664705447, 0.7255189986845236, -1.515865758109733, 1.1947718020993232, 0.7297419515079142, -0.013699030314508092, -1.0301541371805594, 0.3144271224042619, 0.2272483328783791, -0.5141037621047349, -0.7406281651557799, 1.0850105144712348, 2.147362058994342, -0.07998779842291845, 0.6028909123879365, -1.874560788240493, -0.6605248323255268, -0.7417913868262135, -0.5105047609784228, -1.1621478709904667, 2.13380186373721, -2.9664172959322195, -1.532060537380916, 0.4233128040534959, -0.5200823957072064, -3.4968273327438864, -0.14098202362136475, -1.5015624838929416, 0.9886542704709109, 1.624632850259764, -0.41757711045258283, -0.05561664201051497, -0.4564609329751227, 1.5121931127986985, -0.4342028866342378, 0.07599075873160603, 1.393604984343374, 1.0480604767156299, 1.3195692997391442, 0.28549269014446027, 0.03475705800361997, 0.5496285837148351, -0.4232806618505223, -0.47553352873059734, -0.3220591419196173, 1.3651126287359083, -0.6294953678579255, 0.6634803892922804, -0.11827563354227037, -0.08785956358411477, -0.12217461633848396, -0.44281183640748556, 2.522395846478758, -1.2171497832629057, -0.2595396698578526, -0.4095921031085499, 0.6460361408664044, -0.13212020952868403, 0.5089810674388948, 1.804764943028147, 0.9079317646484806, 0.9098421318572656, -1.778988089192219, -0.6881805607443499, -1.1454764485815816, -0.21934674362325188], [-1.4859951982000263, 0.5973428723674444, 1.1614003552741476, 0.8988245983632543, -1.2525574143376736, 1.1181542220606753, 1.6094585949613858, -0.8019421976619123, 0.7688194660713076, 1.681248448279087, -0.8402142302816875, -0.6758778133175692, 0.8330203081298535, -1.1172511166002046, -0.5832279798650952, -1.143074034896016, 0.42547228412662597, -0.016746115112990054, -0.5587228226780814, -1.1385344300129139, 0.622720823812342, -0.3014167256700944, 0.4741761636324711, -1.1070654832353104, 0.14716152008274663, 1.1318935557880425, -0.2907744434798918, 1.911234066403445, -0.2895031842637302, -0.2009313612782512, -0.8927251164680404, -0.49046422342708235, 0.8676446154866484, 0.5130872870705764, 0.8731407908675641, 0.5707885465179092, 0.9554752445736172, 1.7122940320665327, 0.5859396834632274, -0.27077692916292256, -0.3969164952173365, -0.4435322474348042, 0.4642869347094779, -0.7550457618516452, 0.7432880074132094, 0.9798472812036614, 0.41865722402850464, -0.2672764586340498, -0.7679347102627545, 1.351909557190665, 0.02970654361558737, -0.4509672730269091, 0.45083642183315004, 0.7027958110494831, -1.8123719678696462, -0.05308795125901655, -0.21153867691775355, 1.4291290315915184, -0.07472598684526699, -1.1963507996989062, -0.09169648921016275, -1.471390171840917, -0.7846080795508013, -1.2231228427748775, 0.65592704993236, 0.7494705505941144, -0.6787224346984176, 0.3153170712295702, -0.6885578279172904, -0.24440630040160133, -0.16658041265978324, 1.2788165723599818, 0.6544160181021075, 0.5887115321466861, 0.7531988669697451, 0.255338683334435, 1.0502333421497954, -0.24539503814951918, 0.300831821019926, -0.00820189056644428, 0.006416004507905882, -0.7728940716337284, 0.22999119888322675, -1.3163141654372248, -0.5918740660230897, -1.728905137384372, -0.3289576064446671, -0.7761333507830609, 0.15925456075508582, 0.8028453406485085, 0.05245124277289438, 0.29631154909874047, -0.35486948316740385, 1.4948269270020396, 1.6832417818092449, 2.630199689734374, 0.2113479009674002, 1.2001404282264039, 1.0802476210674505, 1.2853581352047176, 2.0997483631764293, -0.3425457944110675, -1.564705470232186, -1.07142633292296, 0.6093575765809938, -0.5389464888195532, -1.6961465308984487, -0.03492707857075363, 1.8649150258836793, 0.9007309694847624, 1.093526455444952, 1.832688948098182, -0.7148451753803643, -0.5691388173263322, 0.32271416758826477, -2.1904564725702067, 0.9058959852474675, -1.0566228733309073, 0.06524829202123385, -1.1687631197768553, 2.795274979407791, 1.062283660525541, 0.28019160372833957, 0.9873698012648977, -0.21612663217619085, 0.740764837899799, -0.010626929676577227, 0.6365829302156706, -0.35258754285943467, 0.9999412031385438, 2.522363601862707, -0.803192003756954, -0.5951879918002126, -1.553280610704627, -3.0274431589816024, -2.209136153191144, -1.2702848719528936, -0.5113129693934653, -0.2624091103003087, -0.6844693824568407, 0.10843652845041397, -1.5417692421792415, 0.05483193448595566, 0.1540212336142563, 1.637821635014761, -0.6795107142315348, -0.04527421505691238, -0.6967877731737209, 0.8100581972601485, -0.6529497130757825, 1.1452206001595524, 0.5897508317496956, 0.8310549159748387, 1.538663910253684, -0.3971977810864641, 0.3159235568019061, 0.7709637302518424, -0.5639852105706873, 0.6251913924231711, -0.2713595382997442, 0.059435615288485635, -0.8615888694229629, 0.22475555637648378, -0.2240502305957244, -1.24552029494997, 1.5881183840668924, -0.188007677797808, -1.215972884486891, -0.17203016237557242, 1.3719614559781157, -1.4131507577080484, 0.41935519821801504, 0.7854015135793356, 0.47181952483033046, -0.019330139504415797, -2.6139361835752233, 0.019371682780420098, 0.21740677251600388, -0.0019349251061086628, 0.2043356493591876, -0.34190329106692924, 0.4989890403364815, 0.6860045884274949, 1.0868308980291488, 1.7850749972096172, -0.6502805070626672, 0.4095676249432631, -0.4536207263183302, 0.8536900880155078, -0.9754014980030331, -0.6692618007177316, -3.0652490071176097, -0.6817793741071313, -1.4983056295290949, 0.5370533529626168, -0.36238196705775977, 1.1949827718359902, 1.2906164271450247, -0.8598249906723168, 0.28639068652658245, -0.40316584133048783, -0.7060789732252571, 0.7496071820900064, 0.34046632048313663, 1.4747033610274651, 0.521565830201394, -0.25325419769412394, 0.27897605021770444, 1.5296321074837471, 1.2825239031446647, 1.0234889760747397, -0.07748833691750798, -0.1398904199303796, -0.6318690384277884, 1.3976221908618587, -0.11827638518516741, -1.3431912934563741, 0.2843405918838389, 0.5399120672141422, -2.73330381827387, -1.2559908976760443, 0.29264218638510203, 1.1361044704595968, -0.43805075472126875, -0.10126955589629898, -1.2173270058866208, -0.0695259616457027, 0.06809862483450854, 0.4186751742419743, 0.10104174639457869, -0.9036585871774518, -1.200197778289608, 0.15238086229573017, 0.16342034022913354, 0.5542082614900498, -0.17016034517090808, 0.3088838178426608, 1.5044083690043166, 0.6523064937980562, 2.5249680509746453, 1.7670587971335767, 0.29206287383574164, 1.46914462506193, 1.3340496167726705, -0.09532411995041234, 0.044479264257222643, 0.6903372870496707, -3.442315826012361, -2.1512388873174153, -1.0266221510244866, -0.7746576206733279, -0.0557479486420992, -0.7534801268967071, 0.8162289606620198, 0.5940365562652421, -1.6716301439494758, 1.965174616260341, 0.22099455982064695, 1.3283535837585487, -0.3148015397810021, 0.08250298485998132, -0.5779639649903424, -0.06758221609309252, -0.6021317323957566, -2.528870308663508, -3.8717413652371744, -1.9746072706003297, 1.4731729981516615, 1.1744004525397556, 0.11374578978509228, -0.013328377156970172, -0.2704707095624706, 0.44384770435303333, 0.15124950911518936, 1.2692414837856032, -1.535206714544151, -1.099559084177214, 0.13920903142487498, -0.37881658531432044, -0.05604077134927201, 2.694312889348316, 0.3730092986308248, 0.23871026199359832, -1.0530032957477387, 0.962204485138442, -0.1639734264640337, 0.4592043832003572, 0.6424157877323116, -0.7396256637350125, -0.35830079365880557, -4.47600694690397, -2.850855568826905, -6.061019657483581, -6.4070707854290205, -4.42298238701535, -1.3981221076916266, 0.27208798556379715, 1.235568857683865, 0.8698976557906438, -0.21941790308262263, -0.6403393340671903, 0.46956381045737877, -1.5560910711085454, -2.0289013995595737, -0.638833406853813, 0.2783149804292124, 1.6666272132296678, 0.386076147644137, -1.1700462849933664, -0.22815861005132448, -1.3757817481515413, 0.05768079661399667, 0.25568177422093563, -1.8013292132368748, -1.6501779351737809, -3.043696048923433, -3.9997287996176234, -6.381149344962649, -2.5830509343114425, -3.7250174100904823, -1.1890890436711543, -0.811682037005399, -1.729609117423102, 0.38790285266065966, 1.5530987867058426, 0.2686456017606768, 1.7634330472526194, 0.1581164229814495, 1.1328833307903645, -0.7652706606824191, -2.002705305465654, 0.5908634182274645, -0.1345564222404987, 1.288175991207788, -2.050461943959894, 0.08780741582541354, -0.9374175226710513, -0.4727385916322226, -1.5943011176581714, -1.9719828389338683, -1.5949993456717322, -2.7180349129762993, -5.988335381337326, -6.093016645553842, -5.809868736223414, -5.014577455289645, -1.338454368413818, -3.9041546233882465, -1.591123045934556, -0.3109502819204111, -0.3746416038082094, 0.1468572773243454, -0.7219626792191651, -0.6493176973538018, 0.15677458892352727, 0.6407968492015917, -0.8135227128925745, -0.9737122852751436, -1.5844604601354007, -2.2269683395148263, 1.2926416615576288, -0.15596222661101175, 0.6483661854600254, -1.3179550451106765, 0.4205823959729467, 0.8419429115923587, 0.571349666313759, -0.3550938134611714, -2.6034539151349665, -3.975259802144014, -5.61505789582084, -4.075253586383023, -2.1913795994818654, -0.5245857199927786, 0.18171721091767884, 0.6619727671467304, -0.21093501281089733, -0.7019050897726473, -0.45442145131479506, -0.6714425932692519, 0.02117197621205688, -1.017618190483587, 0.8255063329901224, -0.9079524097871389, 0.010803805128746645, -0.8851554191763544, -0.8585249263591527, -0.636169174239127, 0.6858301558784283, 0.23887003330813075, -0.8447540054858589, -0.7603145423859791, 0.12156321034411824, -0.9911640270770692, 1.6635906181056463, -0.07457447540004007, 0.9454250199143788, -2.2558436141751104, -2.0450006851537954, -0.95107256333241, 1.3772564256129807, 1.8404826678945003, -0.971769907026845, -0.03982440307952977, 0.6164334670827752, 0.062166666261740236, 0.01928504768499681, -0.7258993879079013, 0.06664721028548233, -0.20781878816143914, 0.9456775681813412, 0.5513547994871809, -0.11133457007881438, 0.6330605492902611, -0.7018845364380244, -1.6201806065046054, -0.9697259010395309, 0.4072444581670925, 1.6293638126096204, -1.1178285481537413, 1.8999344817239003, 0.7836641293879072, -1.3229400253425123, 1.6463087083639234, 0.31938954577742995, -0.2872379986011354, -0.1464206656131008, 1.7030424203780334, 0.5814034432541557, 0.44131187649214715, 0.01372985512416413, 0.8415912422843452, -1.2340055004401798, -0.3679159550737706, 0.0357418288087389, 0.22450597037653944, -0.07466681087524427, 0.3068699250978953, -0.6853890578586419, -0.16990259953519493, -1.7608658831591248, -0.1607000810991704, 0.05415388507957617, -0.4793206885812848, 0.811857514502076, -0.7628401091502832, 0.30793040111066045, -0.7180232111305056, -0.9845367256955035, 1.4862079520064, 1.7450333237097382, 1.3550621529887767, -0.008529360272205633, 1.5588280823717273, 0.7573973682749674, -1.0006673781762303, -3.3430816379559527, 1.572604523414093, -1.7837753617114556, -0.776347436754062, -0.10926292703019405, -1.034905232571798, -0.08442435954658209, -0.05232533990031122, -0.8736788982774156, -0.4348274749676472, 0.45143303723663314, 0.5629343844877982, 0.2966638268671428, 0.4805155924748368, -0.1549981435110893, -0.49076371932516083, 3.3280350124876126, -0.9373764675520398, 2.0016424336714596, -1.733402760687741, 0.5444822482585405, -0.5098779268739323, -1.1276445567899742, 3.104818849548482, 1.477899466385275, 0.04054854828664598, -0.646578305929171, 0.5475257250693213, 0.8087553965455634, -2.995733137177527, -0.7144957252159706, -0.47518040259998834, -2.059541677043054, -0.11188049367850729, -0.252395850987068, 0.41637633247663786, -0.8216291282720154, 2.137391502807013, 0.9931986713515291, -0.04528733291774933, 0.20925926716829885, -0.3455914220159156, -0.12392128622819011, 0.41018473078943185, -0.42264570457153805, 2.7058056022495367, 2.783015683700305, -2.0922273585760705, 0.8779590394714802, -1.0129711779443753, 1.2884796267052845, -0.08363164831024551, 0.8641434490301152, 1.2801258981245656, -0.0477026347901873, 1.327628353632465, -0.4723807430344376, -1.4990324329389406, -1.260886589862813, -0.6760205828231188, -0.1609647924184488, 0.6608449460723073, 1.2990086385746835, -0.017654776297707366, 0.3698711645719644, 0.2430150251755872, 0.6846371820989695, 0.3535832839799233, 0.8794824285359883, -1.3776157019352402, -0.02465372087217302, -0.8766200643259405, 1.1744106126848195, 0.7255623114546379, -0.9365102276340831, -0.3172175047555638, -1.4603315761782658, 0.791472551094387, -0.22748073901030336, 0.9766577975627896, 2.1124438397458754, -0.366426258354792, 0.9523550193257269, 1.3107175618324878, -1.3599799226277525, 0.6960972187829214, -0.32615454576676706, 1.3698217932355845, 0.6580132923245415, 0.490287747904004, 0.08400586581354763, 1.6731841655026796, 2.773498725480073, 1.4358681810455205, 0.57116401878911, 0.6160594500516856, 2.831693783635865, 1.5023308582739299, 1.2048362577106333, -0.2351485582191786, 0.630556822070893, -0.12498436981279132, -1.294328414755431, -1.21048963142631, -0.3136326152404429, 1.3962983812574665, 1.330911677199226, 1.4435438653606656, 1.5771146185198974, 0.9594269384050219, 0.42413484615105174, -0.09821288696451153, 0.636778180859823, 3.08100229423026, 1.3222239845379073, 0.7499624045555259, 0.4329697668448362, -1.0611477808636183, -0.5570175874925101, 0.2982613365668566, 0.37922142235094697, 0.811013755170209, 1.734940243787026, -1.1291723130205373, -0.04047582271024762, 1.9649009353549327, 1.2299320258162674, -1.4147080123089757, 0.7188573497833418, 0.7035493357367141, -0.7296865290958416, 0.031232523856373793, -0.30913527673242625, -1.1973233125814822, 0.27832403547923806, 2.006678779371536, 2.2202932472641614, 0.5053842610655567, -0.8200059562359376, 0.8585735143728485, 0.6563622897134638, -0.4122269978523844, -0.45283907653194694, -1.3701681225276066, 0.5876833327014592, 0.3100860911022866, 0.10074681985912229, -0.3627598662715416, 0.6624339287875217, 1.2898983774012327, 1.2173947351987602, 2.893147434334787, 0.18573495110691318, 0.09433213036065988, 1.2543801806762613, 0.518093069115639, 0.5774597562973091, -1.4364453426196593, -1.5856535975219694, 0.08820468507502924, -0.7563631752431936, -0.9626173817396065, 1.3525097151755263, 1.1374524641581778, 1.7760629469163887, 0.7744388753229785, 0.9570247937140012, 0.07406535394387094, 2.213508501898768, 0.5364260656359079, 1.4339239283568106, -0.23438542602325368, -0.8418159334995313, -0.8462458340704961, -0.11405587617209817, 0.1554492810101371, -0.8727213812683786, 1.1687122033463138, 0.6755434504941492, -0.2782242094814508, 1.6468921111309516, 3.370073646166461, -1.3640948259939876, 2.4358364681895246, 0.6608106603635333, 0.7969281251997377, 0.20274219105400368, -0.94478090610795, -0.6767170934533402, 0.6419871757251076, 0.47572367462275084, -0.0616845361555879, 0.9413316871100075, 1.678029820370659, 2.342246503518484, 1.8404668684526382, 1.2924829479066096, -0.39226131599120423, -1.5453396889229714, -0.524474937694802, -1.8831355486779169, 0.5831123387090155, 1.4079532356974942, -0.1841830623274352, -1.01594967083577, -1.5575566234619351, 1.2266104090293943, 0.4554461163380187, 0.01708185157841296, -1.2565668260944824, 0.44867091478083476, 0.8523688413056896, 0.16920535170678946, -0.23557305344885504, 1.2377383860160698, 0.31723862831925287, -0.7507216609406333, 0.23679416314469376, 0.5278578785117638, 1.1317018721652343, 0.9343903255283929, 1.411869617141392, 2.42009227580556, -0.7097768205737501, 2.836406568575784, -0.22369977167992497, 0.5994184819183808, -0.33383389331123503, 0.18590064790832045, 1.174692773208432, -1.0233429839434354, 0.8074459879489764, 0.5508040364562186, 0.2765240310992759, -1.7779069467414836, 0.0737456642250388, 1.3743509373602603, 1.9531837261109934, 1.1815410891040579, -1.0582558441599397, 0.5799819355236461, 0.5654480939392171, 0.22289821827780776, -1.366577842938077, -0.3061934469671401, 1.8452381960207447, -1.8812432679979896, 1.1051215414986761, 0.6218534197356809, 0.9963111833675613, -0.017071425725846006, 0.7300091002517126, -0.22150073166666925, 0.8469918205857841, 2.10068382623039, 0.6384398031295409, 0.3617284987341192, -0.42971566547327283, -0.6241740621395948, 0.5009812424900196, -0.8352474777307036, 0.38991089926306916, -0.39521629946238235, 0.3597766152734128, -0.12058427705161279, -0.9929221733093295, 0.4940503157782664, 0.5436619851718262, 0.8537071423408902, -1.1771291870683167, 1.0302848603249366, 0.8998448956834777, -1.611570793145516, -0.43892862555669493, 0.5965910593406131, -0.6064597819706291, -0.09507612741645237, 0.47367874895566364, 0.3786737278597713, 0.2795709417239658, -0.46106817388211024, 0.4188284677892613, -2.3597996112062245, -0.7817669595397787, 0.5999968338821718, 0.43609246995348044, 1.5150393268945284, -1.5708233205633526, -0.401487467924629, -1.6351983224219528, -0.34177714650874974, -0.640527799956438, 0.23093227912162007, -0.605795110749908, 0.7281170984184342, 0.7121541568623866, 0.03727798382613385, 1.2271151338776047, 0.9796826166794812, 1.6096121452983856, -1.7267993592891573, 0.9041389118563006, -0.44421838768886135, 0.429907139025307, 0.2048303216246642, 0.26745255925463957, -0.5284832199692382, -0.45608935519009325, -0.9908279806740526, -0.8203582356516219, 0.00952364642615301, 0.4559699852677051, -0.5927758921792432, 1.3681472301511908, 1.2642834739517903, 0.5001537810392119, -0.3790626712767811, -0.9216874743844142, 0.5173683695576274, 0.14358181608819198, 0.09598530969888082, -0.37136124178765545, 0.11850347801152959, 0.7456708583101431, 0.9556285266778871, -0.926357631939954, 1.698491387927566, 1.136872404609275], [1.1364251465708968, 1.9663371136689751, -0.3495269666393495, 0.7711378552676027, 0.7183163023594644, -1.0586536702308338, 0.03384544336776947, -0.16759719547714472, -0.8943632358335681, 0.47349148514087197, 0.026814265420334816, 0.8172604694459876, 0.8580188772888538, -1.3924773749305428, 0.5602029862421184, -0.05102052473884003, 1.0224812504068335, 0.02997868896623873, 1.2698663794057987, 1.7253458711457, 0.20712144122492354, -0.3655937455686828, 1.099359586421168, -0.9960593439646229, -0.26689032026678733, 0.6618531417571812, 1.2381276078134769, 0.42370203268138623, -0.7432628140907752, 1.0804776840489771, -0.5285777722571762, -0.27131385721311124, -0.03925205016550159, -0.3523807713218644, -0.5302305380598631, 1.024149857106303, -0.3870120307420534, 0.10816572216587038, -0.3925568061984355, 0.2054904352362193, -0.029361332682811905, -0.545089635954835, -2.2593182702533383, 0.35044110185571103, -1.2125667728747003, -0.47274464151766277, 0.878039336140907, 0.18553610940110296, -0.7744980837421755, -0.49291893739525944, -0.11092353078797502, 1.0764660556999168, 0.8942777044211074, 1.1268744931467378, -0.566779237792084, 0.09735898268401295, -1.4790091817965143, 0.1493679254256232, -0.20605412891378722, -1.0439368113330914, 0.6154795067695892, -0.5416356421754648, 2.0933631831339294, 1.5678050286577534, -0.05430311432988353, -0.2512839559979589, 1.0107525922183962, 1.3802660407847924, 0.10697229353330677, -1.5769307216841053, -0.007490102863469501, -1.0007357631439495, 0.5967638680708607, -3.8369911144350866, 2.4247042091605198, 1.161795833181372, 1.0944701717137542, 1.428583213554556, 0.8497433519226795, -0.21487939873504697, -0.1797045876309306, -0.14767562021377684, -0.4724939354427973, 0.11180088334408123, -0.13002796670805278, 2.651066502421607, -0.4267611782351396, 0.6851817811668064, -0.8347869203427976, 1.264323693929748, 1.4713476380501225, -0.7393757014913425, 2.0878914339531254, 2.2432910060018374, 0.6736208450363979, -0.1745925593041419, 0.4092131841060641, 2.1737982905816313, 1.3992918531106426, -0.6222136800337065, -0.7495732956230431, 0.17763881794358297, -2.227414318906297, 1.1532404569364927, -0.5554797736244955, 0.8625533742166973, -0.4810046353513137, -0.8042943954195078, -0.3005162035783507, 1.0976063781900232, -0.4838883015834557, -2.1834254208675907, -0.12506978287049866, -1.5632037011760516, -0.4687812993256992, -1.1749479546969746, -0.11340630196195378, 0.7371774922500257, -0.28907297041797747, -0.5832578028895427, 0.797819757589282, 1.159165052462158, -0.2742070590411461, 0.46112223169791644, 0.015194232570694754, -0.5293381667828303, -1.2940100952188918, 1.6028679746093228, -0.7732083759119336, -0.6380429027308321, 0.1674048691691744, 0.9182929075768057, -1.4031671630160085, 1.6961595616358334, -1.1041356839920775, -0.21337588290025797, 0.9715325572266753, 0.3104244111857122, 0.12155355806770406, 1.8152123596043286, -1.1381443949753125, 0.3802238953567327, -0.32785033383987, 0.6676072858764828, -2.567528838903028, 2.095104406775079, 1.9026555335739723, 0.4685180954187611, 2.214049721883424, 0.6747242952049389, 0.5084413674151371, -0.2402024485388417, 0.05537216463719015, 0.09551683273077395, -1.0793067765906676, 1.4889989901274943, 0.686370275016794, 0.5716426355673468, 0.15157759845799387, 1.7228048615529574, -0.3140301774875115, 0.8514218507327158, -0.022572570947058182, 0.7535595528757041, 0.24438446705173555, 0.3480861715018043, -0.9708845359265817, -0.1394052568391235, 1.704027702371292, 0.25200750761632773, -0.6123398480099891, 0.19445810337557956, 0.9594792812478958, 0.9158206484016365, 0.10879676828043151, 1.1796890604886172, 0.2098209719440576, 1.4224453630361127, 1.1533668173340288, 0.43571339061200803, -0.024049968663563612, 0.5398506631730531, 1.216031874648514, -0.5607683716268136, 0.5854716723012734, 0.2018751169220084, 0.7296069092728359, -0.5671920048733672, 2.632399023969009, -0.07902295726146964, -0.8371358165257267, 3.0803883508770826, 3.6833588230182075, -0.4776472831945552, 2.410182074878725, -1.6900937077465663, -0.6181201956645186, -0.24357474991274766, 0.9925120482265651, 1.0472973980711013, 0.17218804382248698, 1.8218604008379582, 1.88735518255608, -0.09577542173838885, -0.5224712057393486, 1.0244000191040377, 1.8013092105969875, 1.1241803460845468, 1.260167307750889, -0.4953035564443188, -0.6394730128667249, 0.20978370090609594, 0.613657718823847, 0.8242290162472662, -0.6635555251535936, 0.5939755615027077, 2.221598903990736, 0.08768572407213439, 0.18091365138869245, 0.1794025838835055, 2.568583207156271, 2.453996811393447, -1.7702110169960033, 0.5197666081379995, -1.8793433597952025, -1.2981891460762558, 1.7624195311568571, 0.7323338793613002, 0.10903618787918065, 0.07030647943361654, -1.2192003963243858, 0.43613243388399303, 0.35206028664716854, 0.4132997463798216, 1.5422783250657743, -0.36436515514377055, -0.5621022468054414, 0.20129331375981854, 0.12761243189938726, 1.5705779421664123, -0.20544847187141868, -0.8230597188847564, 2.1240508574252277, -0.396506273758878, 0.19354666098764997, 0.10142345790549705, 0.8676442939105043, 0.9330041463670631, -0.8709868549166422, 1.011498366021554, 1.0287729151727119, -0.046129661318781504, -0.8791982844395565, -0.027995832854932845, -0.49174309140791705, -0.38609329061446773, -0.28582151211100415, -2.5017389228804756, -0.4186563156004011, -0.26157848213023605, -0.3356870875689548, -0.7995341523817866, 0.5395520143355479, 1.0834915106850849, 0.6441889578369179, 0.19152184345784667, -0.5541185871612088, -1.5106405456436474, -1.050051642174347, -1.8370714928990242, -2.261617074296523, -1.9183568360477319, -0.8195288609296724, -1.7744416524963322, -0.46904291473507903, -0.7749664346070462, 1.211283549522159, -0.11246200102399087, 1.4873897542821244, 1.1333461084112575, 0.14641780288378617, -0.4934187089081445, 0.689766728115132, -0.23905210661265386, 0.3996856391884159, -1.046750828482675, 0.22012078117079364, 0.3198974800492835, 1.4242108900617698, -0.02772828288486365, -0.5000310466389724, -0.4309629959939416, -0.5329690320480597, 1.4258806250481617, -1.1594004531503443, -1.2414852466041266, -1.0214505164799492, -3.0419443288147208, -1.2489859850530656, -4.437572392518355, -3.877385189896705, -2.353447901194524, -2.284854631281465, -4.148089938138775, -0.8322118173268995, 1.1706498884647185, 0.2465559486395148, -0.3480147957799296, 2.175951077661814, -1.107183632684846, -1.931093183146931, -0.5536376810168745, 1.2998350697335823, -1.9119265386160942, -1.6884685315732075, -1.961393895683794, 0.6529649788512195, -1.1995161645323515, -0.9963165707645004, 0.044600500000537086, -0.2313013690832772, -0.6930955315546079, 0.21491395137145045, 0.9430624122164307, 0.8556501483560438, -0.49272758848897075, 0.11385108207217567, -2.1115629378900613, -0.9794235988905858, -2.648082999618261, -4.9567242462382675, -2.647834451302415, -0.4208074077446105, -1.1677088799953765, -1.8603518295314556, 0.04221008719516743, 0.3124508717007197, -0.6737251632583167, -0.9580497852676763, -0.0348776997720543, 0.4065442252007382, 1.0470769807558618, -0.9674349947896024, 1.4618028578676476, 0.4809521607823211, -0.6677523313196442, 0.13710633661460922, 1.6544522272161446, -0.6594885442417326, -0.2975335138447911, -0.883940714249231, -1.8987973383372732, -0.8963163629112654, -0.8132049473350287, -0.11525890845299472, -0.44640517779288647, 1.023699649966188, 0.42823106231586267, -1.496177089739384, -3.6111312226706787, -1.3222754394047138, -0.55756913466867, 0.5231739362970246, -0.79158607740953, 0.9494900160279153, -0.2986829281762177, 0.131953008621543, -1.2946395433649056, -0.6855455466827802, -1.36216751811605, 1.9818794354841187, -0.1267664663464206, 0.6159471306504191, -0.40081037412123793, 1.069844638131734, 0.8173483841734658, 0.1386061506938958, 0.49395799235798626, 0.5774983794396503, 0.1551343899206792, 0.44435474892319565, -0.9534717770084666, 0.8668797008840765, -0.8449150879647954, -0.20532147179293372, 0.09945670449706336, -0.11050653909909884, -2.680304101114854, -2.117331777021542, 0.9936531349755271, 0.7403408216454734, -1.0452637704365113, -0.8832621038347069, 0.03524768535366767, -1.8948909864224863, -1.2439256704322978, 1.3819840068176166, 0.7670517768184951, -0.6790459679117293, -1.1580312933815156, 0.21438674902199864, -0.1754881433237775, 1.3316591726647915, -0.6660599799526785, -1.1229084652387238, -0.5844752692634284, 0.06268214802396165, -0.1854655157740542, -0.562745743088695, -1.4356223941215691, -0.3303587109751756, -1.4289128127165716, -0.7456419208871924, 0.9487845182220365, 1.9843397440915331, 0.15749025758532095, -0.9254936280147914, 0.35239267951265935, -1.3961378449727093, -0.6958931017493786, -1.4128269141381222, -0.36615412461348185, 1.281758684218495, 0.07014113674884401, 1.3654470223216912, -0.35578442501238267, -0.5015031579311771, -0.17540171159126408, -0.1911673629739569, -0.15857329481603874, -0.22546618283365166, 1.3719752682338562, 1.4570718362200412, -0.17986440173642415, -0.39485715769846014, 0.01963842946180388, -2.437214380075497, -0.2545771370821252, -1.6935479464006642, -0.9446413442002047, 1.8000061431398136, -0.9840805438346938, -0.06342662496522578, 1.4879476030999081, 0.07051876515357974, -0.4886692049017231, -0.623940447567952, 0.195466394994877, 2.594261096092775, -0.7486796604877367, 0.06268929058498275, 0.08016658799738471, -1.0047716152269681, -1.430759249213299, -0.8862412199294735, -5.10364669346661, -3.1184763498419446, -3.5220277791304686, 0.6097406765816747, -0.43997822107183765, 0.31021483694975494, 0.8805719277343363, -0.3872985882753414, 0.5007602359648086, 0.4835647366722616, 0.11573900462167432, 0.20277825860245713, 2.6393796317336573, 0.48927342919620426, 1.1317832337643834, -0.02120694308960623, 3.2720960812662603, 0.8051720708827746, 1.4827122319228632, 1.6880496565375949, 0.9987211230851354, 0.6461924114352183, -0.6278691715280481, -0.31797908881370057, -0.2892844728866604, -1.1974427187664247, -2.783892018775511, -3.246147143256229, -4.169303504119903, -3.4344215083628624, -3.4423217728158115, -2.6855269232286285, -2.731522639280555, -2.563341862277456, -2.3514552699641813, -0.5631500667117523, -2.967116079700482, -0.6185200449334739, -1.3693582047733226, 0.5651883727488635, 0.16915650614113653, -0.4753882397340029, 0.9999903711666537, 2.238717753067241, 0.9311464263164544, -0.566874281195082, -0.5050365754600235, -0.21672548429262262, 0.9332210696299609, 1.7248780085604971, 0.3071738755188907, 0.36262266367125545, 0.2316822987490551, -0.6602743349268491, -0.865159763015069, -0.9679649388658684, -1.3013872744993076, -2.7867592966836523, -3.5778508796103874, -6.2328823283045764, -4.398388039586131, -4.716766027121014, -2.735909138545557, -2.764286018845057, -1.1233435471846598, -0.22150779310531524, 0.2580694431478249, -0.6202004458064361, 0.4482216874800441, 1.056104577294273, 1.7748006207924314, -0.7347315576181952, 0.8661948955010769, 1.071898121515987, -0.8710197668461287, 0.4703243492861186, 0.04437019471273459, 0.6891822411015245, -0.8562120648788069, 0.059617435869511466, 1.0571128644610406, 0.9236247050144331, 0.38073241722869644, -0.20238600686387004, -0.5856244930141645, -0.5493586157149778, -1.6585125615188874, -1.0980921685041096, -2.3615551384381113, -2.8276916624905963, -3.452577328077412, -1.3082802011523542, 0.05028543226251621, 1.59804626151874, -0.9779968956678746, 1.567812765817081, 0.37424989500053274, 1.1122280764523627, -0.7251661059300031, -0.938603260625022, -0.5311691029706918, 0.5201709215376418, -0.542071221105668, 0.9143844542491141, -1.255270788431951, -0.4377799465463162, 1.093202711426486, 0.8865695858677074, 0.4616144320803968, 1.0236942224597754, 3.323899221455946, -0.11927804405159274, -1.4275441457395217, 0.8498073945784671, -0.4481009303732879, 0.8408004393922422, 1.9812474758620169, 0.8546140330696206, 1.4300681288211725, 1.0649121777229118, 0.6055456353140384, 0.21613028482154967, 1.4315310410081377, -0.11999214293434877, -0.7246628098579291, 1.7306032712657988, -1.5347095607439365, 2.1485629106162283, 1.7915886658562956, 0.588028080142786, 0.18839535762287365, -1.2536865412546523, -0.02841778422931042, -1.2279465226573105, -0.4460720614628644, -1.3594250214140493, 1.2986585349166997, -1.1189576686927156, -0.6383471662764832, 1.197179719281138, -0.5534416427196748, 1.5435766331065621, 0.2693417558879695, 0.724442708741562, 0.4144673531866468, 0.34459628186013164, 2.4387449243594324, 0.4765024467922389, 1.1384006749573687, -1.3758494100594651, 0.802567459291785, 1.8990531579622094, 0.3268267958496451, 0.11596647521773025, 0.4290447124494408, 0.3141983379280657, -0.32350948629419135, 0.07206366436433931, -0.0012460076140400737, -0.13374871748393358, 1.203853260068612, -0.8761251618674579, -1.2425034483122206, 0.06711764657356216, -1.0980089242877675, -0.8330049114321104, 0.21250974669495087, 1.3207102629572798, -0.7113131243382715, 0.4766934276851811, 0.9494674130765708, 0.6310016301710271, 2.5403629482617114, 1.7048022507006044, 0.8926169575176028, 0.3228520252919601, 0.5012998522309852, -0.9190759732031639, -1.0047795097354264, 0.7742722846272265, 0.2640665382178036, 1.972861480789167, 0.2819971510207447, 1.9399892213169443, 0.8632754104405902, -1.594459549648523, -1.218358768494532, 1.5603650678241934, 0.24917035773718327, -1.4337621872013069, -0.16526213472651133, -0.4027086874007092, -0.1589901196326487, 0.2359523766665227, 0.29877140065780855, 1.2150942283782888, 0.45070804209040766, 0.3852494547082899, -0.28151962144833304, 1.359849851855546, -0.019090698280439883, 1.0931480071291437, -0.2787738896047693, 0.7639346438402052, 1.0926433195829162, -0.36735905063562735, 0.007156856794715722, -1.1794180827241125, -0.28241785132217145, 0.31713098270659745, -2.5412701464757137, -0.032059343452689654, 1.2185233704299498, 0.48265523806082217, -0.25183755183389106, -0.6769263735503852, -1.008933626342905, 0.339968642803435, 0.2616280508217593, -0.8325135643368249, -0.05315477507952228, -0.003014563147549561, 2.2645854394806246, 1.0171609724663018, 0.9684831962330855, 1.8571139661165392, 4.265710471990787, 2.140465986597941, 0.7943265787592945, 1.0767816093229592, 0.41022875275790405, -0.5605228763605731, 1.07369497120984, 0.3656871929578987, -0.2877645327590593, 0.8863702936949474, -0.46020285927652915, -0.3694704897457208, -0.5449618212627103, 0.12237533744210481, -0.4154529266583175, 0.9053742518551309, -0.04183303850020678, -1.4210831139539577, 0.9689591109443844, 0.882599959270245, -0.9058716901897365, -0.8960396950634414, 1.3171013864318546, 0.6349245197032481, 0.6174414152797137, 1.0939174984999258, 0.9858411817963404, 1.331020680929314, 2.5643340406081596, -0.16520021988229117, 1.244171485323704, 1.0797558800584335, -1.108299654700992, 1.0825517617333873, -0.33683131652307025, -1.0696019455940242, -1.363721406170861, -0.5648868669391035, -1.833567842907373, -0.24295888017622158, -0.33978541733537077, -1.0723453155194194, 0.8843852272747856, 0.84706778283079, -1.4468292358601162, -1.3083187001069976, 0.28389850556360163, 0.9343516402714295, -0.42563462578853095, -0.5590304473715666, -0.7285916187560902, 0.6921677358250355, -1.5927499509629872, 0.3795482792702238, 0.8987979951293491, -1.325501191580395, -1.5711054446589168, 0.10829016093501173, 0.07850368004473636, -0.787071650058928, 0.08534337524309685, -2.2344360529767036, 0.26105137135974443, -0.23890790886525515, 1.523605752024692, -1.0805770840645945, -0.7245255573179711, -0.2058009486174202, 1.3582368855299178, -0.31506900523458936, 0.35333031879416543, -0.6809611783759763, 2.2593574873123936, -0.9344211012520698, 0.40206233674585873, -0.6268735372999514, 0.47401678639532396, -0.041351404512765644, -0.23883197664524916, 0.07768342780536745, 0.7124502241831282, -0.6612334329021502, -1.7514881618106781, 0.6124810395257019, 0.4390057487958482, -1.596321195676357, -0.53054614148042, 0.7447918436091738, 0.8584947887410278, 1.948858760591741, 1.027772932918789, 0.8240898592047374, -1.0319227806129498, -0.44016588821236086, 0.5105231768377544, -1.4976998045403502, -1.3221149853883676, -1.3964130935949763, -0.08765387542150191, -2.0815211153694055, -0.44667296320680533, -0.04437006796756985, -0.7487160916429549], [0.9205354759581336, -0.08128656409482876, 1.3017370310117338, 1.6363047230197052, 2.2029641506099074, 0.824414590537853, 0.1785359399344355, 0.9304535996271902, -0.27849980395882545, 0.5769692511863613, 0.12178095118914203, 1.05959060442607, -0.5331327540539504, -1.1736127510111347, 0.8579063795805273, 0.8234759171474478, -1.3569069715562603, 1.0355381278179998, 0.3461821435352869, 1.5928132236566444, -0.7098149331360717, -0.4759678357221505, 0.4468138428390196, -1.347708654739742, 2.175105358561273, 0.4665825828489851, -0.5058598463758158, 0.029754320749170605, -1.271647741274106, 0.30757692075959964, -0.6484266858884787, 0.2984982338943713, 0.018771145648127863, 1.451452078724785, 0.26946681080767343, 0.3974410956228623, 1.1544126208789698, 0.122039091525239, -0.7348826230327743, -1.1665873288086035, 0.8068027433069879, 0.5749235924218876, -0.5882124632235667, -1.6307317934396086, 2.3282906456985137, 0.5917801496919738, 0.32094729887108486, -1.1442161785111924, -1.8225635878770858, 1.3459678294522461, 1.1733714269407542, 0.30543896502230844, -0.3596827182094146, 0.7650784079413576, -0.7709099826279324, 0.6859247283966737, 0.3049094053506612, -0.9457886073752795, -0.34201082665571336, 1.5494904917046244, -1.1967769907237256, -0.8659399913615997, -0.05702434784826581, -0.637591319732598, -0.5220267090070732, -0.1507173858876367, -2.7055556347918763, -0.35209933605843585, 0.7501980441939852, -0.18823411435377455, 0.1386257850959657, -1.8809433957622674, -0.744133311780651, 0.9001457195124862, -0.43234741559365847, -0.38577242168576975, -0.3153726504624164, -1.076331879457493, 0.09986186729221569, 0.9623080738659834, 0.42650270185333683, -0.2723889006627625, -0.841256350836732, 0.5088153930192117, -0.5108160124655121, -0.6055433192163522, 0.89775382127039, 0.160151628159892, -0.7925066493271055, 0.7552331118227387, 1.232111381791308, 1.6759806943583917, -0.1694497281503936, 0.907237163469617, 0.13643261895492148, 0.9621136309958997, 0.015189851665368357, -0.28899681958190027, -1.356858842432841, 0.8704861227700017, -0.7391915685819658, -0.8225424005020954, -1.7219172658437167, -0.6021597065030366, -0.6056233153514462, -1.7158174839684983, -2.118198819026627, -0.37101847735989046, 2.0363122548357984, -1.9034412838014, 0.20716478307678235, -0.16162514627527907, 0.16850184200811916, 0.6187951471667823, 0.19522516265487586, -1.4063052944439696, 0.9191458253511768, -2.370630457427121, -0.5019920807119357, 0.22671426274668402, 1.9116604493249623, -0.34661395868941064, 0.4879245432940128, 1.664709004479068, -0.1874903463432024, 1.989279860379513, 0.5475739051218598, 0.4525615740600698, -1.5394090496485968, 1.2799452766633823, 0.2013630256157841, -1.2740186931039406, 0.21859193289857945, 0.86781294234154, -2.131512146324413, 1.4852300306766684, 1.051929669871893, -0.11973090945997407, -0.16929103708224152, 0.24597357493625602, 0.3636551675236644, 0.339941945732031, -0.735482813788475, -0.818941484730312, 0.5723318075918054, -1.5289428805357732, -0.6607582932071728, 0.8891702561466245, -0.7658663812010527, 0.22376266802608624, 1.0231979766640207, -0.24575247155473312, 1.2163861610350288, -0.9784190479213466, 0.06997738394899948, 0.48073269410330394, 1.3043123811992665, 1.9770790605389044, -0.15881564329129863, 0.12361585246514432, -0.12464478126513764, -0.19545525784622272, 0.20326478968027456, -3.3438509674486308, -1.068558301994354, -2.578624913460994, -0.4049857085094453, 1.0807992080709876, -0.3645309577174172, 0.9710733598197634, 0.4052295174645891, -0.13882743631498934, 0.5348259857502529, -1.0078904887736349, 1.4210722279293497, 0.06060151066868338, 2.0481834217095805, 0.8639587442822062, 0.9687458818955852, -0.13957007467537735, -0.3724209888447939, 0.4342254465648281, -0.17906018088249312, 1.7293341624356444, 0.8684503473136934, 0.327332882281806, 1.2604140404869226, 1.1792846302407853, 1.4528418723804306, 1.025804969935399, -0.5085893518451662, -0.869245817187469, -0.12292790642311362, 0.015445521015917205, -0.19368964812000486, 0.9095288928717061, 0.044583324405224466, 0.8760359222895621, -1.5213838579005488, -1.2872083610038785, 0.10770257216964127, 0.047811920831495006, -0.5077671386218038, -0.5326563902327965, -0.09491438408874388, -0.43295499217603, 0.04736475174689488, 1.8733823858932124, -0.7269716271737876, 0.5173088371255848, -0.278870725063941, -0.7090162758132508, 1.1678465406928729, 0.776760285581307, -0.01118012590842893, 1.6206001778345904, 0.5274368283889201, -0.6313786807193971, 0.7861735276643438, -0.39006252078156395, -1.4631896612995794, 0.46596409849280745, -2.0410336602670998, 1.3345851509637034, 1.0601832879582116, -0.10699863001089423, 0.41182697771867255, -2.0860279391585426, 0.5670361917268905, -0.42535646987103193, -0.8756317278209953, -1.1356391670475408, -2.1710777185795114, -0.30159380843180517, 0.009718227985167355, 0.807658905691087, -0.4169257704123127, -0.32269271714313896, 0.20431240860783292, 2.862080539341616, 0.7640397231628202, 0.9642347744192542, 1.9625792629803804, -1.1599330567535484, -0.05518403289768418, 0.15936219168900131, 0.23064863749617315, 1.5192592148141981, -1.547523434062402, -1.9914662470645135, 0.18959355494682903, 0.98076935460047, -2.7702393397117517, -0.01897651733177132, -0.348879203534515, -0.48239703291120123, 0.36382101467203676, -1.8680385629652956, -1.5466111584165991, 0.9864580575253159, -1.3429880480129162, -2.3463545732759488, 0.5702575966666291, 0.06383770756606591, -0.28792065041018977, -1.061600156863297, -1.1569849609563616, 0.6061927080244234, 0.4660697626665989, -0.10327112809391488, 1.1620454703745586, 2.307922258819972, 1.8666153788902278, -0.010891338086649908, -0.8111652678158706, 0.03591033974965468, -0.8183007559972146, -1.201844599975952, -0.8048364268119128, 0.9604286960953518, 0.7071264416147072, 0.1942823802741401, 1.0147991360461368, 0.5614691831533254, 0.30428381950796074, -1.1551984612398323, -1.5181890906749138, 0.08668976877418218, -0.8507032155740573, -2.0607747976061717, -0.413098186432541, -0.1279780259061171, 1.6987436228704662, 0.04528854139718323, 0.10217940500382357, 0.45399199002957263, -0.42323103435888354, 0.10605280833659478, 1.2639022432312623, 0.3091749059470215, -0.5644840725368134, 0.8625182515797354, 1.550858968950625, 0.5690833593603305, -0.41974782962467827, -2.2947879601880556, -0.3537239103701035, -0.967434721674713, -1.257202661317692, -0.9038954244099304, 0.8390740353528987, -0.576938283167733, -0.7404083164127835, 0.6458636919244835, -0.37611461479190084, 0.5427057254297369, -1.8506209288062387, -0.9791806757836682, -0.8868557277628757, -0.7379098739098117, -0.7671643533644882, -1.442390061021024, -1.3660055324322014, -0.7938491878797547, -2.6064397775794803, -2.87641898200448, -0.06558481004827005, -0.08707210442722706, 2.0865155581869113, 1.7673040822531472, 1.8894256223325454, 2.470700300177062, 0.9810544726813553, 0.03235422039541432, -1.3397754003557183, -0.9313169428128543, -0.2219467924846309, 0.3991237732536655, 0.5852735975911715, 0.6268359723373234, -1.4230896868511518, 0.08204145905434658, -0.8062656276392952, -0.7160014902067215, 0.402743155915707, -0.8566611766717402, -0.9562713565170985, -1.8117923684191573, -1.7848676151568905, -0.9073413428118137, -0.5753903535702735, -1.2125050260503187, -2.954078576130372, -1.781539378462593, 0.3904496800323369, 0.07011307006705751, 2.0982315110278416, 1.3779739030030596, 0.4512193760730285, 0.848337956670072, 0.2829678821951529, 2.0073292186375964, 0.19566646177001878, -0.15110420728872806, 0.39545006883949685, -0.03392272543791668, -0.7826213574556437, 0.8012795067749978, -0.2047027188441972, 1.607334043223339, 1.5758008249010074, 0.6664314214548269, 1.3246756487091762, 1.0128976276538748, -0.7953654988513343, -0.5322779231103564, 1.6875158792195084, -0.674211460991415, -0.7634540991701315, -2.869677340684917, -2.3014432496932016, -1.1193148145649452, -0.05752154805865182, -1.624629994119891, -0.47257807904810745, -0.8867471549877894, 1.5282946339192005, -0.7596197506366016, 0.4762750554896835, -0.7290560186573006, 0.9192676316747759, -1.9487774316206041, -0.2899147266048481, -0.13616337712642615, -0.26687340831883233, 1.2980574039939403, -0.9244159902137895, -0.10960432958815718, 1.2308669995240276, 1.1151113732042237, 0.14819130601900216, 0.3369677661043483, -0.3948496418596275, -0.9302713065525092, 0.18158417701490778, -1.309481293251728, 0.0428131064632378, -2.390612709573312, -1.967663166098862, -0.9165321975732728, -0.8721000305592925, 0.4305864488764164, 2.5478963708123104, -1.477289448302385, -0.7541401957381406, 0.2799947029810817, -0.6789553218164989, 0.8654495215593518, -0.08656281481135077, -0.6996488695525436, 1.870971994708005, -0.10718958551341182, 2.611143129036053, 0.39321856722355797, 0.21752865393944693, 2.4352684230392017, -0.5974204163438248, 0.9492420913887728, 2.508083628805093, 0.9763157057649366, 1.184854412304595, 0.7479582687816063, -0.465036719873229, -0.8331217670482705, -0.7935733286818331, -3.8965811369269114, -0.14775964532293612, -0.4550880725632598, -1.1051833344221782, -0.1273845826723969, -1.3185057342843016, 0.26611508852537513, 1.219552672145026, 1.2403379288339618, -1.6768528199786417, 0.6991991675341691, 0.5087205137456567, -1.2155062071438454, 0.11412553444961168, 1.57271400928941, 0.05091212809065973, 0.0893409983712634, 1.8701437620325239, 0.8583099342821687, 1.13275853021269, 1.0156225406839392, -0.8068395469881618, 2.802873362214802, 0.5157774844414185, 2.0170812871172044, -0.19564590953469407, -1.3081732641220807, -1.0296340310382643, -1.2596337082600388, -0.3936992461722441, -0.195159531480837, 1.839743497616227, -0.8107545116040122, 0.38686719696824845, 1.892106387910014, -0.38347515348188255, -0.9971984100910768, -2.1679167605977145, -1.9309880846263048, 0.028123201423577725, 0.30829053179415533, -1.0828359772861988, -0.5562650818739574, 0.4733389421531083, -0.9528350542410376, 0.07112182507775043, 1.0416314721191409, 1.1451532715170896, 0.48352230449729877, 0.9565874148868548, 2.0522456369146447, 0.953418276413379, -0.5432352269817435, -3.8059815193206665, -2.7031849077720476, 0.3526198594206004, 0.47811499837321686, -0.1431717815933093, -0.05923792060980251, -0.06472029138775133, -0.44413735342310867, -0.1986785100200691, 0.9933461061360338, 0.9717215222267356, 1.3358604538715735, 0.9358932009825632, -1.4826826643588364, 0.11668336527369598, 0.10386227671881425, 0.5439908067313837, -0.2920020255462859, 0.5927921883051122, -0.5986147903458356, 1.7625946035682973, 2.1213478350929886, 0.6134752337802056, 0.9678099504598882, 0.4401742215442434, 3.0060899515068047, 0.3941062472483511, -0.6189687080954941, -2.693468502481113, -1.9275322847434315, -0.3389752856466991, 0.8299343299056159, -0.16836568574517596, -0.8709677103141155, 1.718167480438122, 0.16981038995039321, -0.8710020125411281, -0.4423052913242481, 0.37977806730761104, -0.0514556102915252, 0.3171351954303661, -1.2621612978841446, 0.9069604340999056, 0.5349658429057556, -0.036941285847787164, 2.1811543411413146, 1.0351412942789584, -0.1913189986596841, -1.8008561777264462, -1.0305106464544576, 0.31638163430657196, 0.9469385642222246, 0.22070489327205486, 0.8778748989160278, 1.8836122549379501, -3.059815278693726, -1.0498254645832614, -1.2595792567675699, -0.09755970322973379, 0.5226035677666442, -1.7494305994957207, 0.07401964694686208, -1.3263300023600144, -1.0289715612022177, -0.7195106312854254, 1.106349075087151, -0.7464667733796099, -0.12989817085925026, -0.2270438151327041, 1.2982360706454747, -0.4781860661776054, -0.1013487136793538, -1.8349765255587422, 0.31935709094342946, 0.31126765620618096, -0.8688557170395186, 1.4880375412073406, 1.7459861004673176, -0.9952694633007181, -0.3583036913569918, 0.6145084334008073, -0.32559991519568754, 2.385201357375708, -3.243495380615528, -0.6863515057479442, -0.30452866331110134, -1.229981968094993, 0.35743316561522237, -1.7361951945113074, 1.0175674960209224, -0.6691109750334353, 0.10038806132310697, 0.034209214022024606, 1.5059414758527845, 1.081586376924816, -0.6946073157109883, 1.2618543015238481, -1.5478009306155105, -0.4740352288920558, -0.7887348477357455, 0.38844021019240227, -1.7048746643469657, 0.04988289075287079, -0.7026801586695163, -0.4483703517767519, -0.17503027118509423, -0.5285339149687359, -0.4729131615700296, 0.33270445235373775, 0.5616333571056807, -0.22357755154614223, -0.6984988263431222, -0.7936196705035594, -1.2862525248579586, -0.642725749390137, -1.5536951392719465, -0.7147984315831704, -0.6769294113335667, -1.3819838833615303, -1.4738832524147765, -0.18965648440486846, -0.1839271888803198, 2.0616132751713203, 1.917899440226401, 1.047921849986164, 0.43324669246770386, 0.577806004628478, 1.719019417088483, 0.671509731876907, -1.0647968211338121, 2.297585437931571, 0.08973931761242632, -0.28663129324964265, -0.6733620375147625, 0.15014498432574047, 1.6870933442288198, 0.5563577167200674, 0.4490551880237919, 1.4654395490661047, -0.5237622087622187, -2.0060211733026554, -0.11799773186918495, -2.4192596107612614, -0.7403960018465165, 0.08100473038052183, -0.8169600585012274, -0.08487605115969094, -1.5585762583639506, -0.8524972558999966, -0.029094313455476657, -0.39418884391588255, 0.5102858398314131, 1.1397255050930288, 0.628659185353293, -0.5106642024241119, -0.32223130876234485, 0.9535109840950798, -0.9153094101886832, 0.6117586177713954, -0.6683787222736866, -0.3660690850033777, 0.17546157877481267, -0.6643735328082326, 0.6134938580026214, 1.5031158997066147, -0.6429897407204912, 2.7719191081090484, -1.6900379290817185, -0.41665779422712923, -0.8674308130247672, -2.4125483841075472, -0.2158533019376361, -0.41433125430928364, -1.9871371143558685, -1.0568458312687954, -0.4948047357333812, -2.5281561981003353, 1.0608526254002786, -0.9485748840497786, -0.2997716519781653, -1.0830988973035833, 2.2615505015780486, 0.8938881614600714, -0.3639462956880546, 0.06851362656046145, 0.6363543635744072, 0.9240214778331227, -1.0885342937578544, -0.564334229081393, -1.0530750218730942, -1.597963366978316, -2.0125532686441474, 1.2392267314203167, 0.18288870979201421, -1.2497232631232353, -1.4403704886125208, -1.3283251093566104, -0.42971973706725347, -0.5781824857504261, -0.2599244537625175, -1.174652354496066, -0.7111946253933777, -1.4904067962723793, -2.7639961158891184, -1.641494668638978, -1.5352870932689247, 0.5621516061606686, 0.20461351376839795, 0.7983871084171321, -0.4780004968980739, 0.23118388890778788, 0.2893909384032417, -0.6346854723723986, 0.18956005749943267, -0.39034480418193523, 0.987820013230545, -1.9283621577917631, -0.6714033497840898, 0.43828435521961084, -0.48291665210406476, -1.118414444756241, 0.6122935947180131, -2.9483276904720723, -0.5330453323527412, -2.4270501026199245, -0.3047612356755606, -2.2531876298619875, -1.6965465517352576, -2.8220440526554933, 0.023286340174182796, 0.30938582307087875, 0.1979620381115736, 0.17336163049078412, 0.008317115010837543, 0.7821209307131739, -1.4859229235692626, -1.1663464852794505, -1.5767068399010138, -1.1935206438932886, -0.9015116861026258, 0.0644167800071154, -0.1954332290639489, -0.45473852530981035, 0.5195652887844825, 1.5528734488857814, -0.7386173068281277, 0.6528769667999863, 0.8634088476599548, -0.9313030636999231, -0.15202258996890006, 2.016004704474674, -0.41023961488771565, 0.9653287867025644, 1.5467625853543423, -0.21766498534188022, -0.423967191390121, 0.149082954998637, -2.669985924061592, 0.24923553246897007, 0.5733522732305952, -1.938287965477318, -1.7037152224149594, -1.365992405971463, 0.22448215523343026, -0.2731648570948104, -0.5237807640591412, 0.7338823160805519, -1.540107606003886, -1.0229277946595856, -1.7188926933404793, 0.6995807630132499, 0.8116868193341761, 0.47745882908867426, -1.3138737962979108, 0.9758320862272983, 2.1917855583139856, 1.2262826461779117, -0.4310771527721757, 0.6785600696490747, -0.09673885197422176, 1.6938725079128298, -1.536760039218821, -1.9582189538399328, 0.3356626329150903, 0.32316106119635196, -0.7588272354737493, 0.1631391213307223, -0.8603706888704307, -2.390184324065742, 0.0029414522694710308, 2.5275432880098263, 1.191751066263841, -1.8894470426453445, -1.0016952695711356, -2.4598657752034176, -1.2753188591226692], [0.30320638843186287, 1.0912401199830615, 0.08892062604014818, 0.12434891158087555, -1.4935233465180497, -0.4756704614052591, -2.2004318802116742, 0.9227284849360315, -0.22814259794638128, 1.3404352725760469, 0.6710041710396994, 1.1295577157213088, 0.836565601132227, -2.0949623571473666, -1.7867980666988683, -0.5543978464877841, 0.26065712006592434, 0.5845538768101349, 2.282366426683974, -1.0696706147456618, 0.9991536949505258, -0.8579384661677446, -0.9487658086679464, -0.4470864385639472, -0.45703776858760553, -0.9573959181940991, 0.8427043713500435, -0.6215801561352676, -0.17020103398902822, 0.6004627423285066, -1.101310945734445, -1.1874327920024834, 0.7044975604240526, 0.8317881850030293, -1.9067300477146003, -1.2067869219965421, 0.4569277354855128, 0.639520147140066, -1.3509893243116462, -1.1591668056173465, -0.7545368171294318, 0.029425272017052872, -1.1149931080327673, -0.9505506758650825, -0.8953616207387091, -0.9920129471655729, -0.09998944322119083, -0.3807420410256366, -0.9709616501118102, 0.09890795170715415, -0.23096061334773144, -0.5340012254582212, -0.7301843705160488, 0.6677641538914585, 0.5865221133834897, 0.6888693057722288, -0.2394165979064683, 1.0872139710391693, 0.5185773334319459, 0.6876932081615774, -1.0313269167245886, 0.27291106933995485, 0.3963655217334286, -0.46769591600239685, -1.5435429561793967, -0.6497747294584283, 0.4365489204860018, 2.2175111030101133, -0.9194954634555788, 0.05913075268859079, -1.7646710428603436, 0.13331363904103863, -0.8657486588355453, -0.8614675712592914, -0.8794883247816172, 1.1630661638927535, -0.7574567939028749, -0.11050637952645771, 1.0906019442371448, 0.1440154084365649, -0.9784193721466518, 0.9639213513666015, -0.40371505106331673, -1.8291162030108676, 0.6219491272811919, 0.6120759460017096, 1.639865988244643, 2.0056956840831144, 1.1434480771587012, -1.1265333581350647, 0.10730361084036454, 0.7160889489592244, -0.10293118986650254, 0.10969245607368913, 0.28788761006116204, 0.5780981291009402, 0.7651468757997798, -1.5213853553824572, -0.16468231167410105, -0.861032300222586, -1.6615663538393342, 1.4467440582411097, 1.3630030666385846, 0.9294410969378847, 0.24489646301932, 1.3225627707720302, 0.6150320233037176, -1.044032327611275, -2.8346713233482044, 0.5327385953768131, 1.30357870908095, 0.10892313625634191, -0.4968159920643793, -0.02961917005468103, 0.35090618278656427, 0.9055345769977867, -0.15072108084741, -0.27137170845597386, -1.3916473940056133, 1.0040169076764758, -0.19583472319061818, 0.04227466203460122, -0.4131492271739292, -0.20519294191281118, 0.1915448248573464, 0.30681369984355183, 1.4737903043614058, -1.2756640478744226, -0.5494255786019019, -0.0056417860594084514, -0.9450093111163944, -1.1728233126545289, -1.4010762513634967, 1.55072858587208, 1.0940323587761283, -1.1102301258435987, -1.6124928465694108, 0.07480664137107393, -1.5953990203257704, -0.5704265186556481, -1.3778454928092976, -1.6442178098884628, 0.15485988074493512, -0.7208758561650445, -0.6381615035913341, 0.3792409496226533, 0.048812675875889944, 0.013530492261979665, 1.2051315976918449, 0.7032450405866763, 0.1765912890326921, 1.2300775994347235, 1.2432549969789461, 0.42714357769410555, -1.4941071643445303, 0.9459108050264575, -1.5517168722237913, -1.3682434490796453, 0.5202127128478578, -1.5503203141094712, 0.458033437544961, 0.2569930502788181, 0.9422454597719361, 2.45331836710301, -1.5166836178228342, -0.5040015411173473, 0.6151554593311607, 0.5067987188854736, -0.8726725783758578, -0.42516099679711084, -0.7793233983379667, 2.232626735051233, -0.6906035783885948, 1.3705231619796392, 0.935258493487585, 1.015374131807434, 0.9800777818534395, -0.021930265473181148, -0.017277140322289768, -1.1505813432299947, -0.7233242481403638, 0.9245886422673297, -0.3111618398623189, 0.4626082738768331, -0.08220843076598613, -0.5886080041304916, 0.8694129426007281, -0.24209717697367875, -0.043124753125510694, 0.45509437002172104, 1.1391157365819484, 1.8468236779300415, 1.7141364792824505, -0.06390340685645787, 0.565458636589529, -0.28162684296736185, -1.0081810651470937, -0.6178330384110773, 0.6406259731385082, 0.6071204049793362, -0.266520199009091, -0.44347848599243733, 0.8330662993455271, 0.8729222045415401, 0.44220904696766583, 0.8077307589561801, 1.0191435723533104, 0.855044589370287, 1.3103737414593988, 0.05937805298612402, 0.08988740607121015, -0.009783630467395388, 1.786770679909833, 2.5120702158661143, 0.45003391383827596, 2.348281379123026, 1.2534236212944958, 0.7555015231055797, 0.9555066008115021, 3.9229043858298582, 1.210650253362137, 1.4389841474905547, 0.13486610062247048, -1.1851174260826465, 0.10517113353850827, 1.490641629892752, 0.04379219051187999, 0.30769078562961, -0.17577136031561302, -0.6225642699428364, -1.0733469844737782, 0.1866672013726828, -0.02258568176586719, 1.7943446130098215, 0.13101871108315347, -0.31449755408502644, -1.4310606976431632, 2.660954473153462, 3.4728855089599375, 2.063970138318471, -0.51492713134139, 0.5879102383599669, 1.2738889690203312, 1.7322216051075898, 2.3838438952851493, 0.2212131965861916, 1.209087038972826, 1.2150447079682998, 0.579877570229661, 1.9264840740490936, -0.11742149976600011, 0.6888354367968816, -0.21695841375902758, -1.922465794796499, -1.0152248340059258, -0.45066842838671023, -0.10062817728872005, 0.41568379389969545, -0.9932506038422941, 1.0885563265790084, -1.3194441813140685, 0.27914767897560183, -1.9295521957783244, 0.22958948974540602, -0.9126037434481525, 0.5281210267082853, -0.25898998280849617, 1.2491341296060776, 0.47523163877865093, 1.770744866230351, 1.5212281917080115, 0.2867941103446241, 0.29334642524375226, 0.566322315550809, 0.3174474822084235, 0.045068793778752385, 0.6136863320891922, -0.28793634645186705, -0.34009833747627727, 0.8766159346869948, 0.2766505580384123, 0.7679786613339821, -1.3889912554692465, -1.1155603675881753, -0.9140866314374839, -1.436536176799329, 0.983967904524877, -0.5905075794266349, 0.19771045796328662, -0.8035904553575578, 1.5055420111704982, -1.551799391270293, -2.295931147483304, -2.4976061318968434, -0.22050078331828868, 0.12421758911052269, -1.5274579249208435, -2.2681405100180045, -1.8153313311052521, -3.070860565392565, -1.743444130665296, -1.0192766599469074, -2.7808903281048196, -3.0547208493392444, 1.0083883473018558, 2.4652498019171287, -0.004274039993361151, 0.38692997074306457, 0.18890405975494362, -0.4900818329030838, -0.44976052420893303, -0.12200977112433638, 0.18459993891939677, -0.9146148036802814, -1.5643378803518924, 0.36730957758170313, 0.6890543806541786, -0.29517543887921716, -1.5977071371380447, -0.24655016726474357, -2.481220831776031, -1.2360842646499297, -2.508893702412118, -2.5797282715817995, -1.3623446681485618, -2.944546017071704, -3.352577506051392, -1.3591377726156486, -4.336373234249983, -2.0529760410820437, -1.2524577963481915, -2.4539620974325156, -0.7856384389070002, -0.8215056907351047, -2.410281013669857, -1.045873553412049, 0.33834842389804265, -1.5518661726911611, 0.11613093860302005, -0.4531019585335195, 0.39101877069068824, -1.488033764399386, -0.32072047900847367, -0.8846628557919909, 0.4967026711015681, -1.3295187123981966, -0.4544185270275264, -1.331202165473185, -1.7113504834191562, -0.9097079464904116, -1.0890648478679128, -0.6108317764249545, -1.791288445599262, -0.25720487389659313, -1.626199707908722, -2.1697841332159897, -0.12190448771361799, -1.0435987428956959, -1.1771346674040648, -1.7759591662367709, -0.7605135367643348, -0.17518532887613664, 0.10419005316194335, -0.17923746358233536, -0.05818116890750291, 1.5220343703650208, -0.5306698780676876, -0.7209053877277983, -1.537280484850667, 1.956371953915452, -0.14083163732474166, -2.2051077246934923, 0.7160870779800101, -0.8110866732968357, 1.3650679857640224, 0.3973012321096581, -0.5130430992811642, 0.2526968321279841, 0.41809112865649867, 0.7745713771148174, 0.42536539583456767, 0.31140789770969307, -0.0961993493897015, 0.4505090810368432, 1.4899183852538624, 0.008320079082163725, -1.1820166519542235, -2.3467751181807115, -1.2193468320405996, -0.7745246558114978, 2.0045053992608652, -1.1523028593463434, 0.6715653592547267, -0.0843948869861399, 0.6942513018048879, 0.7522552952684857, 0.17767471230463286, 0.31771270709627736, 1.3181556593556027, -0.011413864755517493, -0.6901930345781598, 1.0046350146334837, 1.179973161788368, -1.2048839494018517, -0.737439592690606, -0.5376091666810353, 0.8824369275286537, -0.63011648395543, 0.7134295563726256, -0.6008548594860419, 0.9816443405391769, 0.7685953418430029, 0.2968076148304415, 0.07912025206357744, -0.3223065800260687, -2.612506198252127, -3.1377398083000565, 2.0057208897222605, 0.1657253171944614, 0.7260242792040054, 1.0013657814558798, -0.9205529532186167, 0.8684755262629895, -1.0542226987942367, 1.3253540851210603, 2.533770540276478, 0.9503127058660046, 0.028413374692949498, 0.6195384322551049, -2.6591498301510192, 0.41279959170987274, -0.6528661858680849, -1.3179917052478787, -1.9762687690430343, -0.24889389211976706, -1.0372633698625315, -1.1339848343276964, 0.4703555647144666, 2.0612915513206125, 0.46909169141243257, -0.9559869841285912, -0.9077328404574537, -1.0808790140427287, -2.4925430915921294, -0.7626184141462736, 1.0294703060891213, 3.1690907591713033, 0.5961848052474282, 1.6473948763828596, 1.3791938959463266, 0.9488447950433344, 0.3163741945608779, 0.29168065760361866, 1.0597961301493646, 0.29183440034701347, -0.9948952834032425, -0.8953469217689166, -0.8595211403392718, 0.39985247866440204, -1.2144045011903504, -2.214459182682934, -0.18798766041803555, 0.5192263045780688, 1.2353819659552374, 0.13267102198250724, -0.08024548967406803, -2.30914764126451, -0.5264252464226467, -0.9367527188565695, -0.005302156057934404, -2.6176461465390126, -1.009139461875243, -1.049794144634297, 0.8204988360208043, 1.4500669890534712, -0.7142982552377064, 1.2947328064421861, -0.8456946547133282, -1.296685357812858, -1.9236675961252532, 0.787418095535222, 0.3565490145458248, 1.7663876525882303, -0.26202853308350355, -0.8640688154936997, -0.43738696049757936, -0.6948491263759693, -0.7869188310568984, -0.36451722143497334, -0.10995383754252219, -0.23049759777049486, 0.7480581128207834, -0.5544883909154977, 0.3394781767257476, 0.4527793933308565, -0.45326831172015747, 0.1276851079376529, 1.181286006918176, 0.03895237266407549, -1.5131667742735013, -0.5188013646516726, -0.7998342131551808, -0.6411873610757102, 0.8266140147557335, -1.6384281233582259, -0.8652858355530294, -0.03955301670216235, -0.5914446475366537, 0.9666579340084079, -0.25259181795970453, 0.17709619659399975, -0.08901491784202625, -0.39446233885845505, 0.30354311576801274, -2.0034610679284026, 1.0783482762839927, 1.2336634041471901, 1.451463716947713, 0.9904789708876535, 1.0485067169689055, -0.1878487574756673, 0.1691294462320657, 1.0415503692067523, -0.9584868158135491, 0.3836406873053833, 1.0435068211927736, 0.23337313776449375, 0.009644422756513166, 0.7128579681673772, 1.1965198227478997, 0.2827828888843631, 0.8519525136634891, -0.19908497226108535, -0.11798214878514741, 0.06842025930438993, 0.061983611907824254, -1.2085461190217006, -1.6245221135592467, -1.5979876696338207, -0.6626789585656506, 0.5272480551963394, 0.17079571623330964, -0.5300411527698686, -1.1646698220275051, 0.1164776338181445, 1.5786690509806156, 0.7659278558891846, 0.30755758957678236, -1.2434303773897704, -0.4480379053457277, -0.6095849411978493, 1.8858508635914706, -0.40289033120468065, -1.5055521062584174, 0.584997587437022, 0.5770715799494235, 0.5327546634442212, 1.591988863546895, -1.4494896679235532, 1.4016905897906666, -1.6259951839390727, 1.5550026480053063, 0.12651135024611948, -0.5498204638216919, -0.8955290963877812, -1.0125542280452193, -1.0602833123118363, 0.5843976925689349, -2.274408109068219, -1.568133676342647, 0.6105386602188736, -0.061076483491522796, -0.8939003944336342, 1.829472637890719, 0.3672248902254582, 0.8363773702599252, 0.734112599575373, -1.5725508688375254, -0.018175781209520306, 0.7809827573064285, 0.036699587341313476, 0.9237476460407474, 0.5983051283489317, 1.410904931341671, 1.7789795558791475, 0.5626273951669145, 2.1499936667580077, -0.731433094403379, 0.19344617120132157, -0.716905506813413, 1.2597943205278195, -1.3530195932492408, -1.0046028349042793, -0.7255256697151089, 0.055246700659579234, -1.2040585650147022, 0.03426287530263008, -0.27632767069800906, -0.5055464262982463, 1.4009262660972843, 0.12213321462904665, 1.0324973332351246, 0.7924792914157855, 0.07984234405600825, -0.4782651970082796, 0.27076688489272416, -1.086207387359037, -0.29704793823048375, -1.6978193280799814, -0.5853696261653357, 0.335129242185227, 0.7860286111314755, 0.30792544248812, -0.5916565199786589, 0.2901042752521908, 0.2247563529171967, -1.3132298337713966, -0.4545904516651593, -0.3046955111900834, -0.2783840056112484, 0.4759234913288235, -1.6281015857059349, -0.04299567598278478, 0.6336799896006954, 0.18750705714488894, 0.20096394831677944, -1.0987162212948143, -0.5069514079074012, 0.9226520524865927, -1.8277882088944872, 0.14610559907770976, 0.04603515224796676, 1.327397246920758, 0.35308921489323825, -0.10210345157714251, 0.6906963356737248, -1.228290665570353, 1.3293630336372946, 0.2882675568658245, 1.7804572125058662, 0.9766528191176366, -0.7578796663152545, -1.5318924122928845, -1.0591967802320148, -1.5745595676113284, 0.15413553427456095, 0.2693562771827734, -0.6856880894827875, 0.7317894533774439, -1.804757694379796, -1.1906693640129615, -1.3553291286407871, -0.062376115537871375, -0.3420029835300144, 0.3186121299169242, 0.37052433758919284, -0.09073084899752024, -0.7196603985301445, 0.7313724683895376, -0.32836016166926424, 0.9345219218992727, -2.355696739448719, -1.065410696810437, 0.4203566849255294, -1.4924297771351274, -1.4772883037315732, 0.6160743477873616, 0.1338358732550482, -1.5043638344868235, -0.8257118678407149, 0.5795616994306033, -0.39310072222358855, -1.062467585302117, -0.7776106619608109, -1.473168370110095, -0.10182429504072579, 0.054811425507419353, 0.36211078585209705, 1.158230052382615, -2.122684857950442, -1.0076417099219916, -0.32171819547167224, -0.5992121994175125, -1.1421210933761554, -0.4596937767647939, 0.25781679424316695, -1.0048985788904614, 0.1837270221579166, 1.4475902976102655, 1.9805603866367512, 0.3305842800125885, -0.4759790284114234, 0.7693443658688944, -1.2733111591755264, -1.5899429308744844, -0.14603134897615605, 0.09650396143847406, -1.1895910666653937, -1.0407810600918779, -1.4500898009330163, -0.5536677234799892, 1.2302929065285293, -0.46990620151532003, -0.19703520746705078, -0.6046194854257686, -1.115097309521874, 0.7432942657308631, -1.2074229057373547, -0.5066679728821762, -1.0949703777120623, 0.5363875055640648, -0.47508894664700463, 0.8164054946607314, -1.0471305511918667, -0.21973380147688443, 0.569591449441753, 0.11111320182577553, 1.1820405342658478, 1.1139003465766373, 0.5654679762504863, -1.1625598144724305, 1.0570746420496324, 2.5038397901678504, -0.7350945677170871, 0.9328145483171201, 0.3442408486066281, -1.6713701945986612, 0.15168322295154738, 0.46030003569544464, 0.5556463781819054, -0.7642626708944054, -0.3109891056597662, 0.4599396443955982, -0.8937649972301567, 0.3358677195779614, 1.1254078539201944, 1.2869883952227124, -0.1772500947436013, 1.12160890248725, -2.816810509030454, -0.41656600365689384, 0.3043514944335521, 0.929897115142101, -0.15802456556745273, -0.3148235226086452, 0.10321402672788867, -0.920563573079254, 1.0881884614037673, -0.566565834684698, 0.23572321829679027, -0.48533553011270675, 0.17040308293964823, -0.8419526884830109, 1.5750968145073574, 1.2548539481322676, -0.45374201811405096, 0.18624509785358567, 0.5136897779139148, 0.654981634563255, -0.20460989545402536, 0.483247605157156, -1.1855804177841083, -1.0357259887750547, -0.4973627634219096, -1.6217585826720464, -0.9161808423849911, 0.3419285617982183, -0.011392434602411404, 2.289139850314413, -0.8983950616210797, -2.215151437405325, -1.054904306221771, 0.2294549601544913, 0.032982204627426924, -0.2571123553594331, -1.7328397805178297, -0.3957369160583767, -1.1679843764383486, -1.8508579011014987, -0.4502876757897711, -0.2595043416768815, -0.26862531384115007, -2.538602249195235, 1.6740468945332838], [1.4113395139079583, -1.2513509116011403, -0.7981395047411742, -0.05530712004250887, 0.6356277263470036, -0.9052728610703444, -1.6876400774181235, -1.38094158710979, 3.095636296956926, -0.56883834916447, 1.9934256049042796, 1.1673438223756083, 0.32415368023283864, 0.031929010071516564, 1.0674453957629932, -1.0545347182079219, -1.9137174017354401, 0.32079846258500627, 1.903292556520574, -1.803297071989765, -0.006172486804391806, -0.36318681012251675, -0.399116453086782, 0.06064272909180064, 1.4125228187146643, 0.29478630069288475, 0.18520139477258118, 1.6204548026082044, 0.43111226211039994, 0.454242435712187, 0.5648248030715826, -0.7002131615453757, 0.8263823452207055, -0.2509949434631168, -0.7401561518751177, 1.3433479195646738, -0.8487299458848326, -0.328335371884597, 0.697272279865122, 0.6142366530211651, -0.06175239067334523, -1.2689786261598184, 0.6830212018357408, -0.41576158430464977, -1.1331735215874008, -0.9958541674216875, -0.6187496810151929, 0.5725415610049489, 0.6711104360669121, 0.004461560473510211, -1.4541356084586723, -0.5269899909989673, -0.1196222691281119, -1.2485434808202958, -2.256984579491806, 0.18950019835934895, 1.1009434397043885, -0.6576380050389968, -0.6222772429819876, -0.9537127014761326, 0.8810802756021712, 0.6441770261801207, 0.4238183395774182, 0.13862389437221637, -0.7058969019201972, 1.0160258096210746, 1.188355581829825, 0.19270365973731254, -0.09082806584592164, 0.9973106494955004, 0.29558862648877765, -0.6097501168771718, 0.28151777722680255, 1.0194351738199932, -0.23338971898013217, 0.2867634062639437, 0.6673891187661796, 0.971101170836567, -0.4894045543963448, -1.300980896413179, -1.4070842567806963, 1.4489922631818724, -0.691425676419492, 1.4893213105963594, -0.4486147457723036, 0.6677054341226818, 0.5305580053160952, 0.5392916354161479, -1.4625475295504604, 1.3334257304828885, -0.79906535923498, 0.7237581854302476, -0.4831606904183003, -0.4897230219388737, -0.964673139761422, -1.130649429375918, -2.3223325700519757, -0.5145414536146606, -1.288901105623348, 0.8265561062722315, 0.2765165546114061, -0.05530354777125272, 0.5743496128423359, 1.008344841263235, 1.3593314530694638, 0.8108934774671932, 0.9427362816058891, 1.4820156715764772, 0.02738635465069792, 0.34389833646516893, 0.5719862805118564, -0.4984843670818491, 0.8705660301404875, 0.6951558068199271, 0.07961435512525138, -0.4324144932471877, -0.3187456484733991, 2.1639364358759545, -0.7609659995914315, -0.5255993533247024, -0.6756590159392846, -1.388993283293363, -1.9205497468076278, -0.8357123408278795, -2.073170272540247, -1.6092480383746648, -0.4468127326922268, -2.306815137816669, 0.03546059668748103, 0.6261384879280076, -1.003298199177021, -0.4933250335485455, 0.34178313591720916, -1.5766616469254267, 2.663594745183018, -0.19329273911722902, -0.02478207588770252, 3.56383592309621, 1.1799085297478138, 0.3809529091310217, -0.7150162602410878, 0.7854834072076733, -0.20631792696481527, 0.9527182987595317, -1.5808004345242979, 